digraph Tree {
node [shape=box] ;
0 [label="X[0] <= 10937.0\nmse = 6703484299.68\nsamples = 932\nvalue = 184292.0781"] ;
1 [label="X[2] <= 55.0\nmse = 3299939530.76\nsamples = 637\nvalue = 159737.7566"] ;
0 -> 1 [labeldistance=2.5, labelangle=45, headlabel="True"] ;
2 [label="X[2] <= 25.0\nmse = 3000401874.88\nsamples = 327\nvalue = 146102.1647"] ;
1 -> 2 ;
3 [label="X[0] <= 9018.5\nmse = 3357337682.38\nsamples = 209\nvalue = 160412.8018"] ;
2 -> 3 ;
4 [label="X[0] <= 6694.5\nmse = 2199850037.78\nsamples = 118\nvalue = 146681.3777"] ;
3 -> 4 ;
5 [label="X[0] <= 5200.0\nmse = 1143911695.5\nsamples = 11\nvalue = 102935.2941"] ;
4 -> 5 ;
6 [label="mse = 0.0\nsamples = 1\nvalue = 39300.0"] ;
5 -> 6 ;
7 [label="X[0] <= 6613.5\nmse = 335352040.816\nsamples = 10\nvalue = 116571.4286"] ;
5 -> 7 ;
8 [label="X[1] <= 2008.5\nmse = 200248520.71\nsamples = 9\nvalue = 119961.5385"] ;
7 -> 8 ;
9 [label="X[0] <= 6510.0\nmse = 68654320.9877\nsamples = 6\nvalue = 126111.1111"] ;
8 -> 9 ;
10 [label="X[0] <= 6086.5\nmse = 16940000.0\nsamples = 4\nvalue = 119600.0"] ;
9 -> 10 ;
11 [label="X[1] <= 2007.0\nmse = 888888.8889\nsamples = 2\nvalue = 116333.3333"] ;
10 -> 11 ;
12 [label="mse = 0.0\nsamples = 1\nvalue = 117000.0"] ;
11 -> 12 ;
13 [label="mse = 0.0\nsamples = 1\nvalue = 115000.0"] ;
11 -> 13 ;
14 [label="X[1] <= 2006.5\nmse = 1000000.0\nsamples = 2\nvalue = 124500.0"] ;
10 -> 14 ;
15 [label="mse = 0.0\nsamples = 1\nvalue = 123500.0"] ;
14 -> 15 ;
16 [label="mse = 0.0\nsamples = 1\nvalue = 125500.0"] ;
14 -> 16 ;
17 [label="mse = 14062500.0\nsamples = 2\nvalue = 134250.0"] ;
9 -> 17 ;
18 [label="X[1] <= 2009.5\nmse = 219796875.0\nsamples = 3\nvalue = 106125.0"] ;
8 -> 18 ;
19 [label="X[0] <= 6300.0\nmse = 60500000.0\nsamples = 2\nvalue = 98500.0"] ;
18 -> 19 ;
20 [label="mse = 0.0\nsamples = 1\nvalue = 93000.0"] ;
19 -> 20 ;
21 [label="mse = 0.0\nsamples = 1\nvalue = 109500.0"] ;
19 -> 21 ;
22 [label="mse = 0.0\nsamples = 1\nvalue = 129000.0"] ;
18 -> 22 ;
23 [label="mse = 0.0\nsamples = 1\nvalue = 72500.0"] ;
7 -> 23 ;
24 [label="X[0] <= 6875.0\nmse = 2095659490.24\nsamples = 107\nvalue = 151030.4035"] ;
4 -> 24 ;
25 [label="X[1] <= 2008.5\nmse = 834358502.56\nsamples = 4\nvalue = 196375.8"] ;
24 -> 25 ;
26 [label="X[1] <= 2007.0\nmse = 672857660.25\nsamples = 2\nvalue = 167939.5"] ;
25 -> 26 ;
27 [label="mse = 0.0\nsamples = 1\nvalue = 193879.0"] ;
26 -> 27 ;
28 [label="mse = 0.0\nsamples = 1\nvalue = 142000.0"] ;
26 -> 28 ;
29 [label="X[0] <= 6807.5\nmse = 43555555.5555\nsamples = 2\nvalue = 215333.3333"] ;
25 -> 29 ;
30 [label="mse = 0.0\nsamples = 1\nvalue = 206000.0"] ;
29 -> 30 ;
31 [label="mse = 0.0\nsamples = 1\nvalue = 220000.0"] ;
29 -> 31 ;
32 [label="X[0] <= 7257.0\nmse = 2069851120.35\nsamples = 103\nvalue = 149664.5783"] ;
24 -> 32 ;
33 [label="X[1] <= 2008.5\nmse = 652240061.728\nsamples = 18\nvalue = 130872.2222"] ;
32 -> 33 ;
34 [label="X[0] <= 7062.0\nmse = 785888892.734\nsamples = 12\nvalue = 138308.8235"] ;
33 -> 34 ;
35 [label="X[0] <= 6997.0\nmse = 464368055.556\nsamples = 4\nvalue = 152416.6667"] ;
34 -> 35 ;
36 [label="X[0] <= 6960.5\nmse = 22562500.0\nsamples = 2\nvalue = 124250.0"] ;
35 -> 36 ;
37 [label="mse = 0.0\nsamples = 1\nvalue = 119500.0"] ;
36 -> 37 ;
38 [label="mse = 0.0\nsamples = 1\nvalue = 129000.0"] ;
36 -> 38 ;
39 [label="X[1] <= 2007.5\nmse = 90250000.0\nsamples = 2\nvalue = 166500.0"] ;
35 -> 39 ;
40 [label="mse = 0.0\nsamples = 1\nvalue = 157000.0"] ;
39 -> 40 ;
41 [label="mse = 0.0\nsamples = 1\nvalue = 176000.0"] ;
39 -> 41 ;
42 [label="X[1] <= 2007.5\nmse = 793485495.868\nsamples = 8\nvalue = 130613.6364"] ;
34 -> 42 ;
43 [label="X[1] <= 2006.5\nmse = 771409135.803\nsamples = 6\nvalue = 136505.5556"] ;
42 -> 43 ;
44 [label="X[0] <= 7150.0\nmse = 1057891458.33\nsamples = 4\nvalue = 141925.0"] ;
43 -> 44 ;
45 [label="mse = 0.0\nsamples = 1\nvalue = 129900.0"] ;
44 -> 45 ;
46 [label="mse = 1478386718.75\nsamples = 3\nvalue = 147937.5"] ;
44 -> 46 ;
47 [label="mse = 22222222.2222\nsamples = 2\nvalue = 125666.6667"] ;
43 -> 47 ;
48 [label="X[0] <= 7181.0\nmse = 33640000.0\nsamples = 2\nvalue = 104100.0"] ;
42 -> 48 ;
49 [label="mse = 0.0\nsamples = 1\nvalue = 109900.0"] ;
48 -> 49 ;
50 [label="mse = 0.0\nsamples = 1\nvalue = 98300.0"] ;
48 -> 50 ;
51 [label="X[0] <= 7107.0\nmse = 171196100.0\nsamples = 6\nvalue = 118230.0"] ;
33 -> 51 ;
52 [label="X[0] <= 7012.0\nmse = 36921875.0\nsamples = 3\nvalue = 129375.0"] ;
51 -> 52 ;
53 [label="X[0] <= 6928.5\nmse = 10562500.0\nsamples = 2\nvalue = 123750.0"] ;
52 -> 53 ;
54 [label="mse = 0.0\nsamples = 1\nvalue = 127000.0"] ;
53 -> 54 ;
55 [label="mse = 0.0\nsamples = 1\nvalue = 120500.0"] ;
53 -> 55 ;
56 [label="mse = 0.0\nsamples = 1\nvalue = 135000.0"] ;
52 -> 56 ;
57 [label="X[1] <= 2009.5\nmse = 122700000.0\nsamples = 3\nvalue = 110800.0"] ;
51 -> 57 ;
58 [label="mse = 0.0\nsamples = 1\nvalue = 100000.0"] ;
57 -> 58 ;
59 [label="mse = 119246400.0\nsamples = 2\nvalue = 112960.0"] ;
57 -> 59 ;
60 [label="X[0] <= 8874.5\nmse = 2263291632.6\nsamples = 85\nvalue = 153314.8921"] ;
32 -> 60 ;
61 [label="X[0] <= 8616.5\nmse = 2358975083.5\nsamples = 74\nvalue = 156395.0424"] ;
60 -> 61 ;
62 [label="X[0] <= 8104.5\nmse = 2244667173.15\nsamples = 59\nvalue = 150880.9175"] ;
61 -> 62 ;
63 [label="X[0] <= 8080.5\nmse = 3168674307.58\nsamples = 31\nvalue = 161305.6604"] ;
62 -> 63 ;
64 [label="X[1] <= 2006.5\nmse = 1124036735.87\nsamples = 30\nvalue = 152258.8235"] ;
63 -> 64 ;
65 [label="X[0] <= 7369.0\nmse = 1985491093.75\nsamples = 8\nvalue = 167687.5"] ;
64 -> 65 ;
66 [label="mse = 0.0\nsamples = 1\nvalue = 120000.0"] ;
65 -> 66 ;
67 [label="X[0] <= 7680.0\nmse = 1956143555.56\nsamples = 7\nvalue = 170866.6667"] ;
65 -> 67 ;
68 [label="X[0] <= 7530.0\nmse = 698422500.0\nsamples = 3\nvalue = 159350.0"] ;
67 -> 68 ;
69 [label="X[0] <= 7453.0\nmse = 81000000.0\nsamples = 2\nvalue = 185000.0"] ;
68 -> 69 ;
70 [label="mse = 0.0\nsamples = 1\nvalue = 194000.0"] ;
69 -> 70 ;
71 [label="mse = 0.0\nsamples = 1\nvalue = 176000.0"] ;
69 -> 71 ;
72 [label="mse = 0.0\nsamples = 1\nvalue = 133700.0"] ;
68 -> 72 ;
73 [label="X[0] <= 7872.5\nmse = 2347727933.88\nsamples = 4\nvalue = 175054.5455"] ;
67 -> 73 ;
74 [label="mse = 2727409876.54\nsamples = 2\nvalue = 178288.8889"] ;
73 -> 74 ;
75 [label="X[0] <= 7997.0\nmse = 380250000.0\nsamples = 2\nvalue = 160500.0"] ;
73 -> 75 ;
76 [label="mse = 0.0\nsamples = 1\nvalue = 141000.0"] ;
75 -> 76 ;
77 [label="mse = 0.0\nsamples = 1\nvalue = 180000.0"] ;
75 -> 77 ;
78 [label="X[0] <= 7332.0\nmse = 571662538.776\nsamples = 22\nvalue = 145205.7143"] ;
64 -> 78 ;
79 [label="mse = 0.0\nsamples = 1\nvalue = 194500.0"] ;
78 -> 79 ;
80 [label="X[0] <= 7937.0\nmse = 450115123.967\nsamples = 21\nvalue = 142218.1818"] ;
78 -> 80 ;
81 [label="X[0] <= 7810.0\nmse = 431581550.069\nsamples = 17\nvalue = 146174.0741"] ;
80 -> 81 ;
82 [label="X[0] <= 7517.5\nmse = 244367118.75\nsamples = 11\nvalue = 140147.5"] ;
81 -> 82 ;
83 [label="X[1] <= 2008.5\nmse = 141952274.306\nsamples = 6\nvalue = 149829.1667"] ;
82 -> 83 ;
84 [label="X[1] <= 2007.5\nmse = 24545898.4375\nsamples = 3\nvalue = 144406.25"] ;
83 -> 84 ;
85 [label="mse = 0.0\nsamples = 1\nvalue = 150750.0"] ;
84 -> 85 ;
86 [label="X[0] <= 7425.0\nmse = 640000.0\nsamples = 2\nvalue = 140600.0"] ;
84 -> 86 ;
87 [label="mse = 0.0\nsamples = 1\nvalue = 139000.0"] ;
86 -> 87 ;
88 [label="mse = 0.0\nsamples = 1\nvalue = 141000.0"] ;
86 -> 88 ;
89 [label="X[1] <= 2009.5\nmse = 200316875.0\nsamples = 3\nvalue = 160675.0"] ;
83 -> 89 ;
90 [label="mse = 0.0\nsamples = 1\nvalue = 185000.0"] ;
89 -> 90 ;
91 [label="X[0] <= 7453.5\nmse = 4108888.8889\nsamples = 2\nvalue = 152566.6667"] ;
89 -> 91 ;
92 [label="mse = 0.0\nsamples = 1\nvalue = 149700.0"] ;
91 -> 92 ;
93 [label="mse = 0.0\nsamples = 1\nvalue = 154000.0"] ;
91 -> 93 ;
94 [label="X[1] <= 2007.5\nmse = 46484375.0\nsamples = 5\nvalue = 125625.0"] ;
82 -> 94 ;
95 [label="X[0] <= 7567.0\nmse = 13265306.1224\nsamples = 4\nvalue = 127857.1429"] ;
94 -> 95 ;
96 [label="mse = 0.0\nsamples = 1\nvalue = 120000.0"] ;
95 -> 96 ;
97 [label="X[0] <= 7750.0\nmse = 3472222.2222\nsamples = 3\nvalue = 129166.6667"] ;
95 -> 97 ;
98 [label="X[0] <= 7670.5\nmse = 1500000.0\nsamples = 2\nvalue = 128500.0"] ;
97 -> 98 ;
99 [label="mse = 0.0\nsamples = 1\nvalue = 129500.0"] ;
98 -> 99 ;
100 [label="mse = 0.0\nsamples = 1\nvalue = 127000.0"] ;
98 -> 100 ;
101 [label="mse = 0.0\nsamples = 1\nvalue = 132500.0"] ;
97 -> 101 ;
102 [label="mse = 0.0\nsamples = 1\nvalue = 110000.0"] ;
94 -> 102 ;
103 [label="X[0] <= 7868.5\nmse = 566223163.265\nsamples = 6\nvalue = 163392.8571"] ;
81 -> 103 ;
104 [label="mse = 0.0\nsamples = 1\nvalue = 208300.0"] ;
103 -> 104 ;
105 [label="X[1] <= 2007.5\nmse = 268467013.889\nsamples = 5\nvalue = 155908.3333"] ;
103 -> 105 ;
106 [label="mse = 0.0\nsamples = 1\nvalue = 176000.0"] ;
105 -> 106 ;
107 [label="X[0] <= 7902.5\nmse = 99944218.75\nsamples = 4\nvalue = 145862.5"] ;
105 -> 107 ;
108 [label="mse = 0.0\nsamples = 1\nvalue = 139950.0"] ;
107 -> 108 ;
109 [label="X[0] <= 7930.5\nmse = 117722222.222\nsamples = 3\nvalue = 147833.3333"] ;
107 -> 109 ;
110 [label="mse = 0.0\nsamples = 1\nvalue = 156000.0"] ;
109 -> 110 ;
111 [label="X[1] <= 2008.5\nmse = 126562500.0\nsamples = 2\nvalue = 143750.0"] ;
109 -> 111 ;
112 [label="mse = 0.0\nsamples = 1\nvalue = 155000.0"] ;
111 -> 112 ;
113 [label="mse = 0.0\nsamples = 1\nvalue = 132500.0"] ;
111 -> 113 ;
114 [label="X[0] <= 7995.0\nmse = 146201388.889\nsamples = 4\nvalue = 124416.6667"] ;
80 -> 114 ;
115 [label="X[1] <= 2007.5\nmse = 16055555.5556\nsamples = 2\nvalue = 112833.3333"] ;
114 -> 115 ;
116 [label="mse = 0.0\nsamples = 1\nvalue = 118500.0"] ;
115 -> 116 ;
117 [label="mse = 0.0\nsamples = 1\nvalue = 110000.0"] ;
115 -> 117 ;
118 [label="X[0] <= 8036.0\nmse = 8000000.0\nsamples = 2\nvalue = 136000.0"] ;
114 -> 118 ;
119 [label="mse = 0.0\nsamples = 1\nvalue = 132000.0"] ;
118 -> 119 ;
120 [label="mse = 0.0\nsamples = 1\nvalue = 138000.0"] ;
118 -> 120 ;
121 [label="mse = 0.0\nsamples = 1\nvalue = 392000.0"] ;
63 -> 121 ;
122 [label="X[0] <= 8369.5\nmse = 843074111.543\nsamples = 28\nvalue = 138323.8409"] ;
62 -> 122 ;
123 [label="X[0] <= 8280.5\nmse = 1126860712.89\nsamples = 12\nvalue = 128110.7647"] ;
122 -> 123 ;
124 [label="X[1] <= 2009.5\nmse = 1050428994.08\nsamples = 9\nvalue = 135384.6154"] ;
123 -> 124 ;
125 [label="X[0] <= 8148.5\nmse = 1166954545.45\nsamples = 8\nvalue = 132000.0"] ;
124 -> 125 ;
126 [label="X[0] <= 8122.5\nmse = 3625166666.67\nsamples = 3\nvalue = 147500.0"] ;
125 -> 126 ;
127 [label="mse = 0.0\nsamples = 1\nvalue = 124500.0"] ;
126 -> 127 ;
128 [label="mse = 5041000000.0\nsamples = 2\nvalue = 159000.0"] ;
126 -> 128 ;
129 [label="X[0] <= 8193.5\nmse = 121246093.75\nsamples = 5\nvalue = 126187.5"] ;
125 -> 129 ;
130 [label="X[0] <= 8181.0\nmse = 3555555.5556\nsamples = 2\nvalue = 116333.3333"] ;
129 -> 130 ;
131 [label="mse = 0.0\nsamples = 1\nvalue = 115000.0"] ;
130 -> 131 ;
132 [label="mse = 0.0\nsamples = 1\nvalue = 119000.0"] ;
130 -> 132 ;
133 [label="X[0] <= 8265.0\nmse = 98640000.0\nsamples = 3\nvalue = 132100.0"] ;
129 -> 133 ;
134 [label="X[1] <= 2007.5\nmse = 562500.0\nsamples = 2\nvalue = 144250.0"] ;
133 -> 134 ;
135 [label="mse = 0.0\nsamples = 1\nvalue = 143500.0"] ;
134 -> 135 ;
136 [label="mse = 0.0\nsamples = 1\nvalue = 145000.0"] ;
134 -> 136 ;
137 [label="mse = 0.0\nsamples = 1\nvalue = 124000.0"] ;
133 -> 137 ;
138 [label="mse = 0.0\nsamples = 1\nvalue = 154000.0"] ;
124 -> 138 ;
139 [label="X[1] <= 2008.0\nmse = 644459566.688\nsamples = 3\nvalue = 104470.75"] ;
123 -> 139 ;
140 [label="X[0] <= 8326.5\nmse = 72000000.0\nsamples = 2\nvalue = 118500.0"] ;
139 -> 140 ;
141 [label="mse = 0.0\nsamples = 1\nvalue = 124500.0"] ;
140 -> 141 ;
142 [label="mse = 0.0\nsamples = 1\nvalue = 106500.0"] ;
140 -> 142 ;
143 [label="mse = 0.0\nsamples = 1\nvalue = 62383.0"] ;
139 -> 143 ;
144 [label="X[0] <= 8577.5\nmse = 557368171.468\nsamples = 16\nvalue = 144754.2963"] ;
122 -> 144 ;
145 [label="X[0] <= 8490.0\nmse = 491555904.0\nsamples = 15\nvalue = 147614.0"] ;
144 -> 145 ;
146 [label="X[0] <= 8462.5\nmse = 509540657.439\nsamples = 8\nvalue = 144191.1765"] ;
145 -> 146 ;
147 [label="X[1] <= 2008.0\nmse = 681880165.289\nsamples = 6\nvalue = 150272.7273"] ;
146 -> 147 ;
148 [label="X[1] <= 2006.5\nmse = 342300000.0\nsamples = 3\nvalue = 163500.0"] ;
147 -> 148 ;
149 [label="X[0] <= 8407.0\nmse = 56888888.8889\nsamples = 2\nvalue = 149166.6667"] ;
148 -> 149 ;
150 [label="mse = 0.0\nsamples = 1\nvalue = 138500.0"] ;
149 -> 150 ;
151 [label="mse = 0.0\nsamples = 1\nvalue = 154500.0"] ;
149 -> 151 ;
152 [label="mse = 0.0\nsamples = 1\nvalue = 185000.0"] ;
148 -> 152 ;
153 [label="X[1] <= 2009.5\nmse = 697562500.0\nsamples = 3\nvalue = 139250.0"] ;
147 -> 153 ;
154 [label="mse = 1040671875.0\nsamples = 2\nvalue = 137875.0"] ;
153 -> 154 ;
155 [label="mse = 0.0\nsamples = 1\nvalue = 142000.0"] ;
153 -> 155 ;
156 [label="X[1] <= 2007.5\nmse = 1467013.8889\nsamples = 2\nvalue = 133041.6667"] ;
146 -> 156 ;
157 [label="mse = 0.0\nsamples = 1\nvalue = 132500.0"] ;
156 -> 157 ;
158 [label="mse = 0.0\nsamples = 1\nvalue = 135750.0"] ;
156 -> 158 ;
159 [label="X[1] <= 2009.5\nmse = 375538593.75\nsamples = 7\nvalue = 154887.5"] ;
145 -> 159 ;
160 [label="X[0] <= 8530.5\nmse = 234585600.0\nsamples = 4\nvalue = 165920.0"] ;
159 -> 160 ;
161 [label="X[0] <= 8514.5\nmse = 22090000.0\nsamples = 2\nvalue = 184300.0"] ;
160 -> 161 ;
162 [label="mse = 0.0\nsamples = 1\nvalue = 179600.0"] ;
161 -> 162 ;
163 [label="mse = 0.0\nsamples = 1\nvalue = 189000.0"] ;
161 -> 163 ;
164 [label="X[0] <= 8534.0\nmse = 888888.8889\nsamples = 2\nvalue = 153666.6667"] ;
160 -> 164 ;
165 [label="mse = 0.0\nsamples = 1\nvalue = 153000.0"] ;
164 -> 165 ;
166 [label="mse = 0.0\nsamples = 1\nvalue = 155000.0"] ;
164 -> 166 ;
167 [label="X[0] <= 8533.5\nmse = 69500000.0\nsamples = 3\nvalue = 136500.0"] ;
159 -> 167 ;
168 [label="mse = 0.0\nsamples = 1\nvalue = 125000.0"] ;
167 -> 168 ;
169 [label="X[0] <= 8554.0\nmse = 5062500.0\nsamples = 2\nvalue = 142250.0"] ;
167 -> 169 ;
170 [label="mse = 0.0\nsamples = 1\nvalue = 140000.0"] ;
169 -> 170 ;
171 [label="mse = 0.0\nsamples = 1\nvalue = 144500.0"] ;
169 -> 171 ;
172 [label="mse = 0.0\nsamples = 1\nvalue = 109008.0"] ;
144 -> 172 ;
173 [label="X[0] <= 8694.0\nmse = 2097802808.62\nsamples = 15\nvalue = 181865.0476"] ;
61 -> 173 ;
174 [label="X[0] <= 8664.0\nmse = 95080900.0\nsamples = 3\nvalue = 240866.0"] ;
173 -> 174 ;
175 [label="X[1] <= 2008.5\nmse = 83666883.0\nsamples = 2\nvalue = 245299.0"] ;
174 -> 175 ;
176 [label="mse = 0.0\nsamples = 1\nvalue = 250580.0"] ;
175 -> 176 ;
177 [label="mse = 0.0\nsamples = 1\nvalue = 229456.0"] ;
175 -> 177 ;
178 [label="mse = 0.0\nsamples = 1\nvalue = 232000.0"] ;
174 -> 178 ;
179 [label="X[0] <= 8807.0\nmse = 949468638.222\nsamples = 12\nvalue = 158264.6667"] ;
173 -> 179 ;
180 [label="X[0] <= 8774.0\nmse = 628940574.306\nsamples = 9\nvalue = 150330.8333"] ;
179 -> 180 ;
181 [label="X[0] <= 8763.5\nmse = 308104398.438\nsamples = 5\nvalue = 162246.25"] ;
180 -> 181 ;
182 [label="X[1] <= 2007.5\nmse = 120666666.667\nsamples = 3\nvalue = 144000.0"] ;
181 -> 182 ;
183 [label="mse = 0.0\nsamples = 1\nvalue = 129000.0"] ;
182 -> 183 ;
184 [label="X[0] <= 8730.0\nmse = 12250000.0\nsamples = 2\nvalue = 151500.0"] ;
182 -> 184 ;
185 [label="mse = 0.0\nsamples = 1\nvalue = 155000.0"] ;
184 -> 185 ;
186 [label="mse = 0.0\nsamples = 1\nvalue = 148000.0"] ;
184 -> 186 ;
187 [label="X[1] <= 2008.0\nmse = 100958424.0\nsamples = 2\nvalue = 173194.0"] ;
181 -> 187 ;
188 [label="mse = 0.0\nsamples = 1\nvalue = 164990.0"] ;
187 -> 188 ;
189 [label="mse = 0.0\nsamples = 1\nvalue = 185500.0"] ;
187 -> 189 ;
190 [label="X[1] <= 2006.5\nmse = 418750000.0\nsamples = 4\nvalue = 126500.0"] ;
180 -> 190 ;
191 [label="mse = 0.0\nsamples = 1\nvalue = 160000.0"] ;
190 -> 191 ;
192 [label="X[0] <= 8776.0\nmse = 59555555.5556\nsamples = 3\nvalue = 115333.3333"] ;
190 -> 192 ;
193 [label="mse = 0.0\nsamples = 1\nvalue = 126000.0"] ;
192 -> 193 ;
194 [label="X[0] <= 8778.5\nmse = 4000000.0\nsamples = 2\nvalue = 110000.0"] ;
192 -> 194 ;
195 [label="mse = 0.0\nsamples = 1\nvalue = 108000.0"] ;
194 -> 195 ;
196 [label="mse = 0.0\nsamples = 1\nvalue = 112000.0"] ;
194 -> 196 ;
197 [label="X[0] <= 8843.0\nmse = 972666666.667\nsamples = 3\nvalue = 190000.0"] ;
179 -> 197 ;
198 [label="X[1] <= 2008.0\nmse = 72250000.0\nsamples = 2\nvalue = 211500.0"] ;
197 -> 198 ;
199 [label="mse = 0.0\nsamples = 1\nvalue = 203000.0"] ;
198 -> 199 ;
200 [label="mse = 0.0\nsamples = 1\nvalue = 220000.0"] ;
198 -> 200 ;
201 [label="mse = 0.0\nsamples = 1\nvalue = 147000.0"] ;
197 -> 201 ;
202 [label="X[0] <= 8895.5\nmse = 1372782088.62\nsamples = 11\nvalue = 136007.381"] ;
60 -> 202 ;
203 [label="X[0] <= 8884.5\nmse = 116388888.889\nsamples = 4\nvalue = 108333.3333"] ;
202 -> 203 ;
204 [label="X[1] <= 2007.5\nmse = 1000000.0\nsamples = 2\nvalue = 101000.0"] ;
203 -> 204 ;
205 [label="mse = 0.0\nsamples = 1\nvalue = 102000.0"] ;
204 -> 205 ;
206 [label="mse = 0.0\nsamples = 1\nvalue = 100000.0"] ;
204 -> 206 ;
207 [label="X[1] <= 2007.5\nmse = 24500000.0\nsamples = 2\nvalue = 123000.0"] ;
203 -> 207 ;
208 [label="mse = 0.0\nsamples = 1\nvalue = 126500.0"] ;
207 -> 208 ;
209 [label="mse = 0.0\nsamples = 1\nvalue = 116000.0"] ;
207 -> 209 ;
210 [label="X[0] <= 8925.5\nmse = 1309895041.91\nsamples = 7\nvalue = 156762.9167"] ;
202 -> 210 ;
211 [label="X[1] <= 2008.0\nmse = 343071708.438\nsamples = 4\nvalue = 175083.75"] ;
210 -> 211 ;
212 [label="X[0] <= 8904.5\nmse = 282424480.816\nsamples = 3\nvalue = 171381.4286"] ;
211 -> 212 ;
213 [label="mse = 0.0\nsamples = 1\nvalue = 181134.0"] ;
212 -> 213 ;
214 [label="X[0] <= 8916.5\nmse = 156250000.0\nsamples = 2\nvalue = 147000.0"] ;
212 -> 214 ;
215 [label="mse = 0.0\nsamples = 1\nvalue = 159500.0"] ;
214 -> 215 ;
216 [label="mse = 0.0\nsamples = 1\nvalue = 134500.0"] ;
214 -> 216 ;
217 [label="mse = 0.0\nsamples = 1\nvalue = 201000.0"] ;
211 -> 217 ;
218 [label="X[1] <= 2007.5\nmse = 1229624104.69\nsamples = 3\nvalue = 120121.25"] ;
210 -> 218 ;
219 [label="mse = 0.0\nsamples = 1\nvalue = 176485.0"] ;
218 -> 219 ;
220 [label="X[1] <= 2008.5\nmse = 227555555.556\nsamples = 2\nvalue = 101333.3333"] ;
218 -> 220 ;
221 [label="mse = 0.0\nsamples = 1\nvalue = 80000.0"] ;
220 -> 221 ;
222 [label="mse = 0.0\nsamples = 1\nvalue = 112000.0"] ;
220 -> 222 ;
223 [label="X[0] <= 9193.5\nmse = 4296648180.46\nsamples = 91\nvalue = 178216.3034"] ;
3 -> 223 ;
224 [label="X[0] <= 9146.5\nmse = 5537204134.21\nsamples = 12\nvalue = 204594.84"] ;
223 -> 224 ;
225 [label="X[1] <= 2008.5\nmse = 1963090662.64\nsamples = 9\nvalue = 185308.0588"] ;
224 -> 225 ;
226 [label="X[0] <= 9048.5\nmse = 1479945326.79\nsamples = 6\nvalue = 199979.7692"] ;
225 -> 226 ;
227 [label="mse = 0.0\nsamples = 1\nvalue = 265900.0"] ;
226 -> 227 ;
228 [label="X[0] <= 9080.0\nmse = 1210974112.91\nsamples = 5\nvalue = 194486.4167"] ;
226 -> 228 ;
229 [label="mse = 0.0\nsamples = 1\nvalue = 120000.0"] ;
228 -> 229 ;
230 [label="X[0] <= 9117.5\nmse = 121594631.21\nsamples = 4\nvalue = 209383.7"] ;
228 -> 230 ;
231 [label="mse = 82473642.25\nsamples = 2\nvalue = 225918.5"] ;
230 -> 231 ;
232 [label="X[1] <= 2007.0\nmse = 45937500.0\nsamples = 2\nvalue = 205250.0"] ;
230 -> 232 ;
233 [label="mse = 0.0\nsamples = 1\nvalue = 200000.0"] ;
232 -> 233 ;
234 [label="mse = 0.0\nsamples = 1\nvalue = 214000.0"] ;
232 -> 234 ;
235 [label="mse = 560046875.0\nsamples = 3\nvalue = 137625.0"] ;
225 -> 235 ;
236 [label="X[1] <= 2008.0\nmse = 10662016050.9\nsamples = 3\nvalue = 245579.25"] ;
224 -> 236 ;
237 [label="X[0] <= 9172.5\nmse = 1987440000.0\nsamples = 2\nvalue = 170400.0"] ;
236 -> 237 ;
238 [label="mse = 0.0\nsamples = 1\nvalue = 225000.0"] ;
237 -> 238 ;
239 [label="mse = 0.0\nsamples = 1\nvalue = 134000.0"] ;
237 -> 239 ;
240 [label="mse = 0.0\nsamples = 1\nvalue = 370878.0"] ;
236 -> 240 ;
241 [label="X[0] <= 10046.5\nmse = 3863034192.46\nsamples = 79\nvalue = 172720.775"] ;
223 -> 241 ;
242 [label="X[0] <= 9433.0\nmse = 2385428766.73\nsamples = 51\nvalue = 160506.1026"] ;
241 -> 242 ;
243 [label="X[0] <= 9410.5\nmse = 3300772525.98\nsamples = 10\nvalue = 176230.875"] ;
242 -> 243 ;
244 [label="X[1] <= 2009.5\nmse = 768472308.673\nsamples = 9\nvalue = 156853.5714"] ;
243 -> 244 ;
245 [label="X[0] <= 9249.0\nmse = 690722544.379\nsamples = 8\nvalue = 153726.9231"] ;
244 -> 245 ;
246 [label="X[0] <= 9233.0\nmse = 530850000.0\nsamples = 5\nvalue = 162500.0"] ;
245 -> 246 ;
247 [label="X[1] <= 2007.0\nmse = 8000000.0\nsamples = 2\nvalue = 142000.0"] ;
246 -> 247 ;
248 [label="mse = 0.0\nsamples = 1\nvalue = 146000.0"] ;
247 -> 248 ;
249 [label="mse = 0.0\nsamples = 1\nvalue = 140000.0"] ;
247 -> 249 ;
250 [label="X[0] <= 9240.5\nmse = 497632653.061\nsamples = 3\nvalue = 171285.7143"] ;
246 -> 250 ;
251 [label="mse = 0.0\nsamples = 1\nvalue = 217000.0"] ;
250 -> 251 ;
252 [label="X[1] <= 2008.5\nmse = 174222222.222\nsamples = 2\nvalue = 163666.6667"] ;
250 -> 252 ;
253 [label="mse = 0.0\nsamples = 1\nvalue = 145000.0"] ;
252 -> 253 ;
254 [label="mse = 0.0\nsamples = 1\nvalue = 173000.0"] ;
252 -> 254 ;
255 [label="X[0] <= 9301.5\nmse = 111887222.222\nsamples = 3\nvalue = 124483.3333"] ;
245 -> 255 ;
256 [label="mse = 0.0\nsamples = 1\nvalue = 139400.0"] ;
255 -> 256 ;
257 [label="X[1] <= 2007.5\nmse = 950625.0\nsamples = 2\nvalue = 117025.0"] ;
255 -> 257 ;
258 [label="mse = 0.0\nsamples = 1\nvalue = 116050.0"] ;
257 -> 258 ;
259 [label="mse = 0.0\nsamples = 1\nvalue = 118000.0"] ;
257 -> 259 ;
260 [label="mse = 0.0\nsamples = 1\nvalue = 197500.0"] ;
244 -> 260 ;
261 [label="mse = 0.0\nsamples = 1\nvalue = 311872.0"] ;
243 -> 261 ;
262 [label="X[0] <= 9488.5\nmse = 2068932393.83\nsamples = 41\nvalue = 156448.0968"] ;
242 -> 262 ;
263 [label="X[0] <= 9470.5\nmse = 108160000.0\nsamples = 3\nvalue = 115200.0"] ;
262 -> 263 ;
264 [label="X[1] <= 2007.5\nmse = 169000000.0\nsamples = 2\nvalue = 123000.0"] ;
263 -> 264 ;
265 [label="mse = 0.0\nsamples = 1\nvalue = 110000.0"] ;
264 -> 265 ;
266 [label="mse = 0.0\nsamples = 1\nvalue = 136000.0"] ;
264 -> 266 ;
267 [label="mse = 0.0\nsamples = 1\nvalue = 110000.0"] ;
263 -> 267 ;
268 [label="X[0] <= 9540.0\nmse = 2078592114.09\nsamples = 38\nvalue = 160066.3509"] ;
262 -> 268 ;
269 [label="X[0] <= 9511.5\nmse = 4491732650.89\nsamples = 3\nvalue = 198692.3333"] ;
268 -> 269 ;
270 [label="X[0] <= 9501.5\nmse = 56250000.0\nsamples = 2\nvalue = 151500.0"] ;
269 -> 270 ;
271 [label="mse = 0.0\nsamples = 1\nvalue = 159000.0"] ;
270 -> 271 ;
272 [label="mse = 0.0\nsamples = 1\nvalue = 144000.0"] ;
270 -> 272 ;
273 [label="mse = 0.0\nsamples = 1\nvalue = 293077.0"] ;
269 -> 273 ;
274 [label="X[0] <= 9585.5\nmse = 1598517698.73\nsamples = 35\nvalue = 155522.1176"] ;
268 -> 274 ;
275 [label="X[1] <= 2007.5\nmse = 884125000.0\nsamples = 3\nvalue = 111500.0"] ;
274 -> 275 ;
276 [label="mse = 0.0\nsamples = 1\nvalue = 128500.0"] ;
275 -> 276 ;
277 [label="X[1] <= 2009.5\nmse = 1190250000.0\nsamples = 2\nvalue = 94500.0"] ;
275 -> 277 ;
278 [label="mse = 0.0\nsamples = 1\nvalue = 60000.0"] ;
277 -> 278 ;
279 [label="mse = 0.0\nsamples = 1\nvalue = 129000.0"] ;
277 -> 279 ;
280 [label="X[0] <= 9884.5\nmse = 1480348695.37\nsamples = 32\nvalue = 159268.6809"] ;
274 -> 280 ;
281 [label="X[1] <= 2009.5\nmse = 2040412943.93\nsamples = 20\nvalue = 166624.2667"] ;
280 -> 281 ;
282 [label="X[0] <= 9804.0\nmse = 2389804092.69\nsamples = 16\nvalue = 175805.8182"] ;
281 -> 282 ;
283 [label="X[0] <= 9746.0\nmse = 2196504600.0\nsamples = 14\nvalue = 169620.0"] ;
282 -> 283 ;
284 [label="X[0] <= 9606.0\nmse = 3355930578.51\nsamples = 9\nvalue = 184981.8182"] ;
283 -> 284 ;
285 [label="X[1] <= 2007.5\nmse = 3760532343.75\nsamples = 6\nvalue = 174037.5"] ;
284 -> 285 ;
286 [label="mse = 0.0\nsamples = 1\nvalue = 140000.0"] ;
285 -> 286 ;
287 [label="mse = 4108600000.0\nsamples = 5\nvalue = 178900.0"] ;
285 -> 287 ;
288 [label="X[0] <= 9631.0\nmse = 1105828888.89\nsamples = 3\nvalue = 214166.6667"] ;
284 -> 288 ;
289 [label="mse = 0.0\nsamples = 1\nvalue = 244600.0"] ;
288 -> 289 ;
290 [label="X[0] <= 9696.0\nmse = 964102500.0\nsamples = 2\nvalue = 198950.0"] ;
288 -> 290 ;
291 [label="mse = 0.0\nsamples = 1\nvalue = 167900.0"] ;
290 -> 291 ;
292 [label="mse = 0.0\nsamples = 1\nvalue = 230000.0"] ;
290 -> 292 ;
293 [label="X[1] <= 2008.5\nmse = 138480246.914\nsamples = 5\nvalue = 150844.4444"] ;
283 -> 293 ;
294 [label="X[0] <= 9757.0\nmse = 136337142.857\nsamples = 4\nvalue = 147800.0"] ;
293 -> 294 ;
295 [label="X[1] <= 2007.5\nmse = 8926875.0\nsamples = 2\nvalue = 156175.0"] ;
294 -> 295 ;
296 [label="mse = 0.0\nsamples = 1\nvalue = 157900.0"] ;
295 -> 296 ;
297 [label="mse = 0.0\nsamples = 1\nvalue = 151000.0"] ;
295 -> 297 ;
298 [label="X[1] <= 2007.0\nmse = 88002222.2222\nsamples = 2\nvalue = 136633.3333"] ;
294 -> 298 ;
299 [label="mse = 0.0\nsamples = 1\nvalue = 149900.0"] ;
298 -> 299 ;
300 [label="mse = 0.0\nsamples = 1\nvalue = 130000.0"] ;
298 -> 300 ;
301 [label="mse = 0.0\nsamples = 1\nvalue = 161500.0"] ;
293 -> 301 ;
302 [label="X[1] <= 2008.0\nmse = 113720896.0\nsamples = 2\nvalue = 237664.0"] ;
282 -> 302 ;
303 [label="mse = 0.0\nsamples = 1\nvalue = 248328.0"] ;
302 -> 303 ;
304 [label="mse = 0.0\nsamples = 1\nvalue = 227000.0"] ;
302 -> 304 ;
305 [label="X[0] <= 9636.0\nmse = 210234375.0\nsamples = 4\nvalue = 141375.0"] ;
281 -> 305 ;
306 [label="mse = 0.0\nsamples = 1\nvalue = 128000.0"] ;
305 -> 306 ;
307 [label="X[0] <= 9810.0\nmse = 62687500.0\nsamples = 3\nvalue = 154750.0"] ;
305 -> 307 ;
308 [label="X[0] <= 9731.0\nmse = 20250000.0\nsamples = 2\nvalue = 147500.0"] ;
307 -> 308 ;
309 [label="mse = 0.0\nsamples = 1\nvalue = 152000.0"] ;
308 -> 309 ;
310 [label="mse = 0.0\nsamples = 1\nvalue = 143000.0"] ;
308 -> 310 ;
311 [label="mse = 0.0\nsamples = 1\nvalue = 162000.0"] ;
307 -> 311 ;
312 [label="X[0] <= 10002.0\nmse = 228029273.356\nsamples = 12\nvalue = 146288.2353"] ;
280 -> 312 ;
313 [label="X[1] <= 2007.5\nmse = 176534097.222\nsamples = 9\nvalue = 140991.6667"] ;
312 -> 313 ;
314 [label="X[0] <= 9965.5\nmse = 76055555.5556\nsamples = 3\nvalue = 134666.6667"] ;
313 -> 314 ;
315 [label="mse = 0.0\nsamples = 2\nvalue = 128500.0"] ;
314 -> 315 ;
316 [label="mse = 0.0\nsamples = 1\nvalue = 147000.0"] ;
314 -> 316 ;
317 [label="X[0] <= 9928.5\nmse = 197001388.889\nsamples = 6\nvalue = 147316.6667"] ;
313 -> 317 ;
318 [label="mse = 0.0\nsamples = 1\nvalue = 128000.0"] ;
317 -> 318 ;
319 [label="X[0] <= 9964.0\nmse = 146849600.0\nsamples = 5\nvalue = 151180.0"] ;
317 -> 319 ;
320 [label="X[1] <= 2008.5\nmse = 95062500.0\nsamples = 2\nvalue = 157250.0"] ;
319 -> 320 ;
321 [label="mse = 0.0\nsamples = 1\nvalue = 147500.0"] ;
320 -> 321 ;
322 [label="mse = 0.0\nsamples = 1\nvalue = 167000.0"] ;
320 -> 322 ;
323 [label="X[1] <= 2009.5\nmse = 140435555.556\nsamples = 3\nvalue = 147133.3333"] ;
319 -> 323 ;
324 [label="X[0] <= 9995.5\nmse = 86490000.0\nsamples = 2\nvalue = 140700.0"] ;
323 -> 324 ;
325 [label="mse = 0.0\nsamples = 1\nvalue = 150000.0"] ;
324 -> 325 ;
326 [label="mse = 0.0\nsamples = 1\nvalue = 131400.0"] ;
324 -> 326 ;
327 [label="mse = 0.0\nsamples = 1\nvalue = 160000.0"] ;
323 -> 327 ;
328 [label="X[0] <= 10005.5\nmse = 122700000.0\nsamples = 3\nvalue = 159000.0"] ;
312 -> 328 ;
329 [label="mse = 0.0\nsamples = 1\nvalue = 167000.0"] ;
328 -> 329 ;
330 [label="X[0] <= 10008.5\nmse = 133388888.889\nsamples = 2\nvalue = 153666.6667"] ;
328 -> 330 ;
331 [label="mse = 0.0\nsamples = 1\nvalue = 145500.0"] ;
330 -> 331 ;
332 [label="mse = 0.0\nsamples = 1\nvalue = 170000.0"] ;
330 -> 332 ;
333 [label="X[0] <= 10191.0\nmse = 5815494515.62\nsamples = 28\nvalue = 195405.1667"] ;
241 -> 333 ;
334 [label="X[0] <= 10083.5\nmse = 7318275116.96\nsamples = 6\nvalue = 264880.3636"] ;
333 -> 334 ;
335 [label="mse = 0.0\nsamples = 1\nvalue = 184900.0"] ;
334 -> 335 ;
336 [label="X[0] <= 10165.0\nmse = 7207140099.95\nsamples = 5\nvalue = 282653.7778"] ;
334 -> 336 ;
337 [label="X[0] <= 10154.5\nmse = 8761436692.0\nsamples = 3\nvalue = 304314.0"] ;
336 -> 337 ;
338 [label="X[0] <= 10117.0\nmse = 6948046875.0\nsamples = 2\nvalue = 258875.0"] ;
337 -> 338 ;
339 [label="mse = 0.0\nsamples = 1\nvalue = 307000.0"] ;
338 -> 339 ;
340 [label="mse = 0.0\nsamples = 1\nvalue = 114500.0"] ;
338 -> 340 ;
341 [label="mse = 0.0\nsamples = 1\nvalue = 395192.0"] ;
337 -> 341 ;
342 [label="X[1] <= 2008.0\nmse = 1283555555.56\nsamples = 2\nvalue = 239333.3333"] ;
336 -> 342 ;
343 [label="mse = 0.0\nsamples = 1\nvalue = 290000.0"] ;
342 -> 343 ;
344 [label="mse = 0.0\nsamples = 1\nvalue = 214000.0"] ;
342 -> 344 ;
345 [label="X[0] <= 10657.5\nmse = 2961768013.77\nsamples = 22\nvalue = 170752.6774"] ;
333 -> 345 ;
346 [label="X[0] <= 10220.5\nmse = 3300507079.23\nsamples = 16\nvalue = 185077.7619"] ;
345 -> 346 ;
347 [label="X[0] <= 10207.5\nmse = 287302500.0\nsamples = 2\nvalue = 127950.0"] ;
346 -> 347 ;
348 [label="mse = 0.0\nsamples = 1\nvalue = 144900.0"] ;
347 -> 348 ;
349 [label="mse = 0.0\nsamples = 1\nvalue = 111000.0"] ;
347 -> 349 ;
350 [label="X[0] <= 10644.5\nmse = 3060912242.71\nsamples = 14\nvalue = 198519.5882"] ;
346 -> 350 ;
351 [label="X[0] <= 10231.5\nmse = 2730658481.09\nsamples = 12\nvalue = 189462.2"] ;
350 -> 351 ;
352 [label="mse = 0.0\nsamples = 1\nvalue = 295493.0"] ;
351 -> 352 ;
353 [label="X[0] <= 10618.5\nmse = 2065307769.39\nsamples = 11\nvalue = 181888.5714"] ;
351 -> 353 ;
354 [label="X[0] <= 10371.0\nmse = 1936898936.09\nsamples = 10\nvalue = 186418.4615"] ;
353 -> 354 ;
355 [label="X[1] <= 2006.5\nmse = 1090673347.22\nsamples = 4\nvalue = 171998.3333"] ;
354 -> 355 ;
356 [label="X[0] <= 10250.5\nmse = 430417800.0\nsamples = 2\nvalue = 199330.0"] ;
355 -> 356 ;
357 [label="mse = 0.0\nsamples = 1\nvalue = 169990.0"] ;
356 -> 357 ;
358 [label="mse = 0.0\nsamples = 1\nvalue = 214000.0"] ;
356 -> 358 ;
359 [label="X[0] <= 10322.5\nmse = 256888888.889\nsamples = 2\nvalue = 144666.6667"] ;
355 -> 359 ;
360 [label="mse = 0.0\nsamples = 1\nvalue = 156000.0"] ;
359 -> 360 ;
361 [label="mse = 0.0\nsamples = 1\nvalue = 122000.0"] ;
359 -> 361 ;
362 [label="X[0] <= 10393.0\nmse = 2331228469.39\nsamples = 6\nvalue = 198778.5714"] ;
354 -> 362 ;
363 [label="mse = 0.0\nsamples = 1\nvalue = 305900.0"] ;
362 -> 363 ;
364 [label="X[1] <= 2007.5\nmse = 488516458.333\nsamples = 5\nvalue = 180925.0"] ;
362 -> 364 ;
365 [label="mse = 0.0\nsamples = 1\nvalue = 143250.0"] ;
364 -> 365 ;
366 [label="X[0] <= 10577.5\nmse = 245562400.0\nsamples = 4\nvalue = 188460.0"] ;
364 -> 366 ;
367 [label="X[0] <= 10477.0\nmse = 221461875.0\nsamples = 3\nvalue = 184325.0"] ;
366 -> 367 ;
368 [label="X[1] <= 2009.0\nmse = 137780000.0\nsamples = 2\nvalue = 190600.0"] ;
367 -> 368 ;
369 [label="mse = 0.0\nsamples = 1\nvalue = 174000.0"] ;
368 -> 369 ;
370 [label="mse = 0.0\nsamples = 1\nvalue = 198900.0"] ;
368 -> 370 ;
371 [label="mse = 0.0\nsamples = 1\nvalue = 165500.0"] ;
367 -> 371 ;
372 [label="mse = 0.0\nsamples = 1\nvalue = 205000.0"] ;
366 -> 372 ;
373 [label="mse = 0.0\nsamples = 1\nvalue = 123000.0"] ;
353 -> 373 ;
374 [label="X[0] <= 10655.5\nmse = 308002500.0\nsamples = 2\nvalue = 266450.0"] ;
350 -> 374 ;
375 [label="mse = 0.0\nsamples = 1\nvalue = 284000.0"] ;
374 -> 375 ;
376 [label="mse = 0.0\nsamples = 1\nvalue = 248900.0"] ;
374 -> 376 ;
377 [label="X[0] <= 10890.0\nmse = 914511600.0\nsamples = 6\nvalue = 140670.0"] ;
345 -> 377 ;
378 [label="X[1] <= 2008.5\nmse = 484187500.0\nsamples = 5\nvalue = 152150.0"] ;
377 -> 378 ;
379 [label="X[1] <= 2007.0\nmse = 3462400.0\nsamples = 3\nvalue = 138440.0"] ;
378 -> 379 ;
380 [label="X[0] <= 10669.5\nmse = 367500.0\nsamples = 2\nvalue = 137550.0"] ;
379 -> 380 ;
381 [label="mse = 0.0\nsamples = 1\nvalue = 136500.0"] ;
380 -> 381 ;
382 [label="mse = 0.0\nsamples = 1\nvalue = 137900.0"] ;
380 -> 382 ;
383 [label="mse = 0.0\nsamples = 1\nvalue = 142000.0"] ;
379 -> 383 ;
384 [label="X[0] <= 10783.5\nmse = 450000000.0\nsamples = 2\nvalue = 175000.0"] ;
378 -> 384 ;
385 [label="mse = 0.0\nsamples = 1\nvalue = 190000.0"] ;
384 -> 385 ;
386 [label="mse = 0.0\nsamples = 1\nvalue = 145000.0"] ;
384 -> 386 ;
387 [label="mse = 0.0\nsamples = 1\nvalue = 94750.0"] ;
377 -> 387 ;
388 [label="X[2] <= 47.5\nmse = 1300120830.38\nsamples = 118\nvalue = 120061.4973"] ;
2 -> 388 ;
389 [label="X[1] <= 2007.5\nmse = 551531104.275\nsamples = 44\nvalue = 98918.6866"] ;
388 -> 389 ;
390 [label="X[0] <= 6212.5\nmse = 598636569.944\nsamples = 25\nvalue = 105765.3333"] ;
389 -> 390 ;
391 [label="X[2] <= 35.0\nmse = 309786956.277\nsamples = 14\nvalue = 97707.2381"] ;
390 -> 391 ;
392 [label="X[0] <= 4075.0\nmse = 107235425.222\nsamples = 11\nvalue = 93380.6667"] ;
391 -> 392 ;
393 [label="mse = 0.0\nsamples = 1\nvalue = 110500.0"] ;
392 -> 393 ;
394 [label="X[0] <= 4275.0\nmse = 79426663.3125\nsamples = 10\nvalue = 91240.75"] ;
392 -> 394 ;
395 [label="mse = 0.0\nsamples = 1\nvalue = 79000.0"] ;
394 -> 395 ;
396 [label="X[0] <= 5612.5\nmse = 74066772.56\nsamples = 9\nvalue = 92056.8"] ;
394 -> 396 ;
397 [label="X[1] <= 2006.5\nmse = 84434713.8889\nsamples = 3\nvalue = 95668.3333"] ;
396 -> 397 ;
398 [label="mse = 0.0\nsamples = 1\nvalue = 108480.0"] ;
397 -> 398 ;
399 [label="X[0] <= 4840.0\nmse = 3547968.75\nsamples = 2\nvalue = 89262.5"] ;
397 -> 399 ;
400 [label="mse = 0.0\nsamples = 1\nvalue = 90350.0"] ;
399 -> 400 ;
401 [label="mse = 0.0\nsamples = 1\nvalue = 86000.0"] ;
399 -> 401 ;
402 [label="X[1] <= 2006.5\nmse = 52662397.2099\nsamples = 6\nvalue = 89649.1111"] ;
396 -> 402 ;
403 [label="X[0] <= 5862.5\nmse = 10255555.5556\nsamples = 4\nvalue = 86566.6667"] ;
402 -> 403 ;
404 [label="mse = 0.0\nsamples = 1\nvalue = 79900.0"] ;
403 -> 404 ;
405 [label="X[0] <= 5950.0\nmse = 1640000.0\nsamples = 3\nvalue = 87900.0"] ;
403 -> 405 ;
406 [label="mse = 0.0\nsamples = 1\nvalue = 85500.0"] ;
405 -> 406 ;
407 [label="X[0] <= 6060.0\nmse = 250000.0\nsamples = 2\nvalue = 88500.0"] ;
405 -> 407 ;
408 [label="mse = 0.0\nsamples = 1\nvalue = 89000.0"] ;
407 -> 408 ;
409 [label="mse = 0.0\nsamples = 1\nvalue = 88000.0"] ;
407 -> 409 ;
410 [label="X[0] <= 5962.5\nmse = 80467298.0\nsamples = 2\nvalue = 95814.0"] ;
402 -> 410 ;
411 [label="mse = 0.0\nsamples = 1\nvalue = 89471.0"] ;
410 -> 411 ;
412 [label="mse = 0.0\nsamples = 1\nvalue = 108500.0"] ;
410 -> 412 ;
413 [label="X[0] <= 5200.0\nmse = 738888888.889\nsamples = 3\nvalue = 123666.6667"] ;
391 -> 413 ;
414 [label="mse = 0.0\nsamples = 1\nvalue = 87000.0"] ;
413 -> 414 ;
415 [label="X[0] <= 5760.0\nmse = 100000000.0\nsamples = 2\nvalue = 142000.0"] ;
413 -> 415 ;
416 [label="mse = 0.0\nsamples = 1\nvalue = 152000.0"] ;
415 -> 416 ;
417 [label="mse = 0.0\nsamples = 1\nvalue = 132000.0"] ;
415 -> 417 ;
418 [label="X[0] <= 8849.0\nmse = 784851488.889\nsamples = 11\nvalue = 117046.6667"] ;
390 -> 418 ;
419 [label="X[0] <= 7447.5\nmse = 328038553.719\nsamples = 7\nvalue = 130290.9091"] ;
418 -> 419 ;
420 [label="X[0] <= 6913.0\nmse = 65015625.0\nsamples = 3\nvalue = 113125.0"] ;
419 -> 420 ;
421 [label="X[0] <= 6342.5\nmse = 10125000.0\nsamples = 2\nvalue = 117500.0"] ;
420 -> 421 ;
422 [label="mse = 0.0\nsamples = 1\nvalue = 119750.0"] ;
421 -> 422 ;
423 [label="mse = 0.0\nsamples = 1\nvalue = 113000.0"] ;
421 -> 423 ;
424 [label="mse = 0.0\nsamples = 1\nvalue = 100000.0"] ;
420 -> 424 ;
425 [label="X[0] <= 8181.5\nmse = 213737142.857\nsamples = 4\nvalue = 140100.0"] ;
419 -> 425 ;
426 [label="X[0] <= 7774.5\nmse = 37276875.0\nsamples = 2\nvalue = 149975.0"] ;
425 -> 426 ;
427 [label="mse = 0.0\nsamples = 1\nvalue = 139400.0"] ;
426 -> 427 ;
428 [label="mse = 0.0\nsamples = 1\nvalue = 153500.0"] ;
426 -> 428 ;
429 [label="X[0] <= 8497.0\nmse = 145635555.556\nsamples = 2\nvalue = 126933.3333"] ;
425 -> 429 ;
430 [label="mse = 0.0\nsamples = 1\nvalue = 118400.0"] ;
429 -> 430 ;
431 [label="mse = 0.0\nsamples = 1\nvalue = 144000.0"] ;
429 -> 431 ;
432 [label="X[0] <= 9376.5\nmse = 232171875.0\nsamples = 4\nvalue = 80625.0"] ;
418 -> 432 ;
433 [label="mse = 0.0\nsamples = 1\nvalue = 67000.0"] ;
432 -> 433 ;
434 [label="X[0] <= 10293.0\nmse = 227055555.556\nsamples = 3\nvalue = 85166.6667"] ;
432 -> 434 ;
435 [label="mse = 0.0\nsamples = 1\nvalue = 91000.0"] ;
434 -> 435 ;
436 [label="mse = 315062500.0\nsamples = 2\nvalue = 82250.0"] ;
434 -> 436 ;
437 [label="X[0] <= 3848.0\nmse = 379173152.966\nsamples = 19\nvalue = 90967.7419"] ;
389 -> 437 ;
438 [label="mse = 0.0\nsamples = 1\nvalue = 55000.0"] ;
437 -> 438 ;
439 [label="X[0] <= 5304.0\nmse = 347252222.222\nsamples = 18\nvalue = 92166.6667"] ;
437 -> 439 ;
440 [label="X[1] <= 2008.5\nmse = 354210400.0\nsamples = 3\nvalue = 86340.0"] ;
439 -> 440 ;
441 [label="mse = 0.0\nsamples = 1\nvalue = 52000.0"] ;
440 -> 441 ;
442 [label="X[1] <= 2009.5\nmse = 74251875.0\nsamples = 2\nvalue = 94925.0"] ;
440 -> 442 ;
443 [label="mse = 0.0\nsamples = 1\nvalue = 99900.0"] ;
442 -> 443 ;
444 [label="mse = 0.0\nsamples = 1\nvalue = 80000.0"] ;
442 -> 444 ;
445 [label="X[0] <= 6060.0\nmse = 337712576.0\nsamples = 15\nvalue = 93332.0"] ;
439 -> 445 ;
446 [label="mse = 0.0\nsamples = 1\nvalue = 119000.0"] ;
445 -> 446 ;
447 [label="X[1] <= 2008.5\nmse = 304806086.956\nsamples = 14\nvalue = 91100.0"] ;
445 -> 447 ;
448 [label="X[0] <= 9488.5\nmse = 93171875.0\nsamples = 4\nvalue = 97375.0"] ;
447 -> 448 ;
449 [label="X[2] <= 37.5\nmse = 74055555.5556\nsamples = 3\nvalue = 93833.3333"] ;
448 -> 449 ;
450 [label="X[0] <= 7534.5\nmse = 9000000.0\nsamples = 2\nvalue = 88000.0"] ;
449 -> 450 ;
451 [label="mse = 0.0\nsamples = 1\nvalue = 91000.0"] ;
450 -> 451 ;
452 [label="mse = 0.0\nsamples = 1\nvalue = 85000.0"] ;
450 -> 452 ;
453 [label="mse = 0.0\nsamples = 1\nvalue = 105500.0"] ;
449 -> 453 ;
454 [label="mse = 0.0\nsamples = 1\nvalue = 108000.0"] ;
448 -> 454 ;
455 [label="X[0] <= 8366.0\nmse = 385477155.556\nsamples = 10\nvalue = 87753.3333"] ;
447 -> 455 ;
456 [label="X[1] <= 2009.5\nmse = 369796875.0\nsamples = 4\nvalue = 77125.0"] ;
455 -> 456 ;
457 [label="X[0] <= 6660.0\nmse = 338888888.889\nsamples = 3\nvalue = 83333.3333"] ;
456 -> 457 ;
458 [label="mse = 506250000.0\nsamples = 2\nvalue = 82500.0"] ;
457 -> 458 ;
459 [label="mse = 0.0\nsamples = 1\nvalue = 85000.0"] ;
457 -> 459 ;
460 [label="mse = 0.0\nsamples = 1\nvalue = 58500.0"] ;
456 -> 460 ;
461 [label="X[0] <= 8980.0\nmse = 335165123.967\nsamples = 6\nvalue = 91618.1818"] ;
455 -> 461 ;
462 [label="X[0] <= 8740.0\nmse = 18402222.2222\nsamples = 2\nvalue = 108933.3333"] ;
461 -> 462 ;
463 [label="mse = 0.0\nsamples = 1\nvalue = 105900.0"] ;
462 -> 463 ;
464 [label="mse = 0.0\nsamples = 1\nvalue = 115000.0"] ;
462 -> 464 ;
465 [label="X[0] <= 9680.0\nmse = 299359375.0\nsamples = 4\nvalue = 85125.0"] ;
461 -> 465 ;
466 [label="X[0] <= 9170.0\nmse = 328560000.0\nsamples = 2\nvalue = 90800.0"] ;
465 -> 466 ;
467 [label="mse = 0.0\nsamples = 1\nvalue = 76000.0"] ;
466 -> 467 ;
468 [label="mse = 0.0\nsamples = 1\nvalue = 113000.0"] ;
466 -> 468 ;
469 [label="X[0] <= 10322.5\nmse = 107555555.556\nsamples = 2\nvalue = 75666.6667"] ;
465 -> 469 ;
470 [label="mse = 0.0\nsamples = 1\nvalue = 61000.0"] ;
469 -> 470 ;
471 [label="mse = 0.0\nsamples = 1\nvalue = 83000.0"] ;
469 -> 471 ;
472 [label="X[0] <= 10425.0\nmse = 1325176285.6\nsamples = 74\nvalue = 132273.2931"] ;
388 -> 472 ;
473 [label="X[1] <= 2006.5\nmse = 937018671.411\nsamples = 65\nvalue = 128195.0693"] ;
472 -> 473 ;
474 [label="X[0] <= 8405.0\nmse = 393818790.17\nsamples = 15\nvalue = 112165.2174"] ;
473 -> 474 ;
475 [label="X[0] <= 6120.0\nmse = 364785555.556\nsamples = 12\nvalue = 116833.3333"] ;
474 -> 475 ;
476 [label="X[0] <= 4856.0\nmse = 328233600.0\nsamples = 4\nvalue = 99720.0"] ;
475 -> 476 ;
477 [label="mse = 0.0\nsamples = 1\nvalue = 121600.0"] ;
476 -> 477 ;
478 [label="X[0] <= 5155.0\nmse = 260687500.0\nsamples = 3\nvalue = 94250.0"] ;
476 -> 478 ;
479 [label="mse = 0.0\nsamples = 1\nvalue = 79000.0"] ;
478 -> 479 ;
480 [label="X[0] <= 5655.0\nmse = 56250000.0\nsamples = 2\nvalue = 109500.0"] ;
478 -> 480 ;
481 [label="mse = 0.0\nsamples = 1\nvalue = 117000.0"] ;
480 -> 481 ;
482 [label="mse = 0.0\nsamples = 1\nvalue = 102000.0"] ;
480 -> 482 ;
483 [label="X[0] <= 8324.0\nmse = 222879763.314\nsamples = 8\nvalue = 123415.3846"] ;
475 -> 483 ;
484 [label="X[0] <= 7392.5\nmse = 182474400.0\nsamples = 7\nvalue = 118440.0"] ;
483 -> 484 ;
485 [label="X[0] <= 6337.5\nmse = 123141093.75\nsamples = 5\nvalue = 122112.5"] ;
484 -> 485 ;
486 [label="mse = 62500.0\nsamples = 2\nvalue = 114750.0"] ;
485 -> 486 ;
487 [label="X[0] <= 6717.5\nmse = 137806875.0\nsamples = 3\nvalue = 129475.0"] ;
485 -> 487 ;
488 [label="mse = 0.0\nsamples = 1\nvalue = 140200.0"] ;
487 -> 488 ;
489 [label="X[0] <= 7100.0\nmse = 45562500.0\nsamples = 2\nvalue = 118750.0"] ;
487 -> 489 ;
490 [label="mse = 0.0\nsamples = 1\nvalue = 112000.0"] ;
489 -> 490 ;
491 [label="mse = 0.0\nsamples = 1\nvalue = 125500.0"] ;
489 -> 491 ;
492 [label="X[0] <= 7916.5\nmse = 150062500.0\nsamples = 2\nvalue = 103750.0"] ;
484 -> 492 ;
493 [label="mse = 0.0\nsamples = 1\nvalue = 91500.0"] ;
492 -> 493 ;
494 [label="mse = 0.0\nsamples = 1\nvalue = 116000.0"] ;
492 -> 494 ;
495 [label="mse = 0.0\nsamples = 1\nvalue = 140000.0"] ;
483 -> 495 ;
496 [label="X[0] <= 9074.0\nmse = 137474400.0\nsamples = 3\nvalue = 95360.0"] ;
474 -> 496 ;
497 [label="mse = 0.0\nsamples = 1\nvalue = 81000.0"] ;
496 -> 497 ;
498 [label="X[0] <= 10074.0\nmse = 2222.2222\nsamples = 2\nvalue = 104933.3333"] ;
496 -> 498 ;
499 [label="mse = 0.0\nsamples = 1\nvalue = 104900.0"] ;
498 -> 499 ;
500 [label="mse = 0.0\nsamples = 1\nvalue = 105000.0"] ;
498 -> 500 ;
501 [label="X[1] <= 2007.5\nmse = 999081696.532\nsamples = 50\nvalue = 132921.8205"] ;
473 -> 501 ;
502 [label="X[0] <= 7911.0\nmse = 918901258.503\nsamples = 14\nvalue = 152107.1429"] ;
501 -> 502 ;
503 [label="X[0] <= 6600.0\nmse = 430570607.639\nsamples = 5\nvalue = 167029.1667"] ;
502 -> 503 ;
504 [label="X[0] <= 5681.0\nmse = 14222222.2222\nsamples = 2\nvalue = 133666.6667"] ;
503 -> 504 ;
505 [label="mse = 0.0\nsamples = 1\nvalue = 139000.0"] ;
504 -> 505 ;
506 [label="mse = 0.0\nsamples = 1\nvalue = 131000.0"] ;
504 -> 506 ;
507 [label="X[0] <= 7700.0\nmse = 74661666.6667\nsamples = 3\nvalue = 178150.0"] ;
503 -> 507 ;
508 [label="X[0] <= 7421.0\nmse = 55875625.0\nsamples = 2\nvalue = 182475.0"] ;
507 -> 508 ;
509 [label="mse = 0.0\nsamples = 1\nvalue = 175000.0"] ;
508 -> 509 ;
510 [label="mse = 0.0\nsamples = 1\nvalue = 189950.0"] ;
508 -> 510 ;
511 [label="mse = 0.0\nsamples = 1\nvalue = 169500.0"] ;
507 -> 511 ;
512 [label="X[0] <= 9246.0\nmse = 877267654.321\nsamples = 9\nvalue = 132211.1111"] ;
502 -> 512 ;
513 [label="X[0] <= 8628.5\nmse = 1001768055.56\nsamples = 6\nvalue = 141816.6667"] ;
512 -> 513 ;
514 [label="X[0] <= 8510.0\nmse = 56601875.0\nsamples = 4\nvalue = 124975.0"] ;
513 -> 514 ;
515 [label="X[0] <= 8330.0\nmse = 21446666.6667\nsamples = 3\nvalue = 121300.0"] ;
514 -> 515 ;
516 [label="X[0] <= 8112.0\nmse = 2402500.0\nsamples = 2\nvalue = 124450.0"] ;
515 -> 516 ;
517 [label="mse = 0.0\nsamples = 1\nvalue = 122900.0"] ;
516 -> 517 ;
518 [label="mse = 0.0\nsamples = 1\nvalue = 126000.0"] ;
516 -> 518 ;
519 [label="mse = 0.0\nsamples = 1\nvalue = 115000.0"] ;
515 -> 519 ;
520 [label="mse = 0.0\nsamples = 1\nvalue = 136000.0"] ;
514 -> 520 ;
521 [label="X[0] <= 8868.5\nmse = 1190250000.0\nsamples = 2\nvalue = 175500.0"] ;
513 -> 521 ;
522 [label="mse = 0.0\nsamples = 1\nvalue = 210000.0"] ;
521 -> 522 ;
523 [label="mse = 0.0\nsamples = 1\nvalue = 141000.0"] ;
521 -> 523 ;
524 [label="X[0] <= 9546.0\nmse = 74666666.6667\nsamples = 3\nvalue = 113000.0"] ;
512 -> 524 ;
525 [label="mse = 0.0\nsamples = 1\nvalue = 105000.0"] ;
524 -> 525 ;
526 [label="X[0] <= 9867.0\nmse = 64000000.0\nsamples = 2\nvalue = 117000.0"] ;
524 -> 526 ;
527 [label="mse = 0.0\nsamples = 1\nvalue = 125000.0"] ;
526 -> 527 ;
528 [label="mse = 0.0\nsamples = 1\nvalue = 109000.0"] ;
526 -> 528 ;
529 [label="X[0] <= 9619.0\nmse = 843054157.055\nsamples = 36\nvalue = 125853.5439"] ;
501 -> 529 ;
530 [label="X[0] <= 6653.5\nmse = 839869059.445\nsamples = 32\nvalue = 122094.9388"] ;
529 -> 530 ;
531 [label="X[0] <= 6205.5\nmse = 701986264.953\nsamples = 14\nvalue = 132558.7826"] ;
530 -> 531 ;
532 [label="X[0] <= 4750.0\nmse = 666616411.878\nsamples = 12\nvalue = 127113.2632"] ;
531 -> 532 ;
533 [label="X[0] <= 4225.0\nmse = 370196316.75\nsamples = 2\nvalue = 148325.5"] ;
532 -> 533 ;
534 [label="mse = 0.0\nsamples = 1\nvalue = 115000.0"] ;
533 -> 534 ;
535 [label="mse = 0.0\nsamples = 1\nvalue = 159434.0"] ;
533 -> 535 ;
536 [label="X[0] <= 5962.5\nmse = 593675622.222\nsamples = 10\nvalue = 121456.6667"] ;
532 -> 536 ;
537 [label="X[0] <= 5712.5\nmse = 912786938.776\nsamples = 5\nvalue = 107985.7143"] ;
536 -> 537 ;
538 [label="X[1] <= 2009.5\nmse = 109805555.556\nsamples = 4\nvalue = 119666.6667"] ;
537 -> 538 ;
539 [label="mse = 0.0\nsamples = 1\nvalue = 105000.0"] ;
538 -> 539 ;
540 [label="X[0] <= 5468.0\nmse = 3375000.0\nsamples = 3\nvalue = 127000.0"] ;
538 -> 540 ;
541 [label="X[0] <= 5218.0\nmse = 500000.0\nsamples = 2\nvalue = 126000.0"] ;
540 -> 541 ;
542 [label="mse = 0.0\nsamples = 1\nvalue = 127000.0"] ;
541 -> 542 ;
543 [label="mse = 0.0\nsamples = 1\nvalue = 125500.0"] ;
541 -> 543 ;
544 [label="mse = 0.0\nsamples = 1\nvalue = 130000.0"] ;
540 -> 544 ;
545 [label="mse = 0.0\nsamples = 1\nvalue = 37900.0"] ;
537 -> 545 ;
546 [label="X[1] <= 2008.5\nmse = 16734648.4375\nsamples = 5\nvalue = 133243.75"] ;
536 -> 546 ;
547 [label="mse = 0.0\nsamples = 1\nvalue = 129900.0"] ;
546 -> 547 ;
548 [label="X[0] <= 6060.0\nmse = 11107968.75\nsamples = 4\nvalue = 136587.5"] ;
546 -> 548 ;
549 [label="mse = 1440000.0\nsamples = 2\nvalue = 133700.0"] ;
548 -> 549 ;
550 [label="X[0] <= 6145.5\nmse = 4100625.0\nsamples = 2\nvalue = 139475.0"] ;
548 -> 550 ;
551 [label="mse = 0.0\nsamples = 1\nvalue = 141500.0"] ;
550 -> 551 ;
552 [label="mse = 0.0\nsamples = 1\nvalue = 137450.0"] ;
550 -> 552 ;
553 [label="X[0] <= 6266.0\nmse = 60076875.0\nsamples = 2\nvalue = 158425.0"] ;
531 -> 553 ;
554 [label="mse = 0.0\nsamples = 1\nvalue = 162900.0"] ;
553 -> 554 ;
555 [label="mse = 0.0\nsamples = 1\nvalue = 145000.0"] ;
553 -> 555 ;
556 [label="X[1] <= 2009.5\nmse = 779301597.633\nsamples = 18\nvalue = 112838.4615"] ;
530 -> 556 ;
557 [label="X[0] <= 9102.0\nmse = 760635576.559\nsamples = 16\nvalue = 116191.3043"] ;
556 -> 557 ;
558 [label="X[0] <= 8402.5\nmse = 417313010.381\nsamples = 11\nvalue = 112141.1765"] ;
557 -> 558 ;
559 [label="X[0] <= 8046.0\nmse = 505944843.75\nsamples = 5\nvalue = 120237.5"] ;
558 -> 559 ;
560 [label="X[1] <= 2008.5\nmse = 570693600.0\nsamples = 3\nvalue = 110780.0"] ;
559 -> 560 ;
561 [label="mse = 0.0\nsamples = 1\nvalue = 89500.0"] ;
560 -> 561 ;
562 [label="X[0] <= 7348.0\nmse = 448002222.222\nsamples = 2\nvalue = 124966.6667"] ;
560 -> 562 ;
563 [label="mse = 0.0\nsamples = 1\nvalue = 110000.0"] ;
562 -> 563 ;
564 [label="mse = 0.0\nsamples = 1\nvalue = 154900.0"] ;
562 -> 564 ;
565 [label="X[0] <= 8286.0\nmse = 500000.0\nsamples = 2\nvalue = 136000.0"] ;
559 -> 565 ;
566 [label="mse = 0.0\nsamples = 1\nvalue = 135000.0"] ;
565 -> 566 ;
567 [label="mse = 0.0\nsamples = 1\nvalue = 136500.0"] ;
565 -> 567 ;
568 [label="X[1] <= 2008.5\nmse = 228469135.803\nsamples = 6\nvalue = 104944.4444"] ;
558 -> 568 ;
569 [label="X[0] <= 8859.5\nmse = 117160000.0\nsamples = 4\nvalue = 115700.0"] ;
568 -> 569 ;
570 [label="X[0] <= 8557.5\nmse = 12546875.0\nsamples = 3\nvalue = 120875.0"] ;
569 -> 570 ;
571 [label="X[0] <= 8442.5\nmse = 55555.5556\nsamples = 2\nvalue = 118833.3333"] ;
570 -> 571 ;
572 [label="mse = 0.0\nsamples = 1\nvalue = 119000.0"] ;
571 -> 572 ;
573 [label="mse = 0.0\nsamples = 1\nvalue = 118500.0"] ;
571 -> 573 ;
574 [label="mse = 0.0\nsamples = 1\nvalue = 127000.0"] ;
570 -> 574 ;
575 [label="mse = 0.0\nsamples = 1\nvalue = 95000.0"] ;
569 -> 575 ;
576 [label="X[0] <= 8437.5\nmse = 42250000.0\nsamples = 2\nvalue = 91500.0"] ;
568 -> 576 ;
577 [label="mse = 0.0\nsamples = 1\nvalue = 98000.0"] ;
576 -> 577 ;
578 [label="mse = 0.0\nsamples = 1\nvalue = 85000.0"] ;
576 -> 578 ;
579 [label="X[0] <= 9372.0\nmse = 1555222222.22\nsamples = 5\nvalue = 127666.6667"] ;
557 -> 579 ;
580 [label="X[0] <= 9132.0\nmse = 380250000.0\nsamples = 2\nvalue = 164500.0"] ;
579 -> 580 ;
581 [label="mse = 0.0\nsamples = 1\nvalue = 184000.0"] ;
580 -> 581 ;
582 [label="mse = 0.0\nsamples = 1\nvalue = 145000.0"] ;
580 -> 582 ;
583 [label="X[1] <= 2008.5\nmse = 1125187500.0\nsamples = 3\nvalue = 109250.0"] ;
579 -> 583 ;
584 [label="mse = 355555555.556\nsamples = 2\nvalue = 92333.3333"] ;
583 -> 584 ;
585 [label="mse = 0.0\nsamples = 1\nvalue = 160000.0"] ;
583 -> 585 ;
586 [label="X[0] <= 8150.0\nmse = 175468888.889\nsamples = 2\nvalue = 87133.3333"] ;
556 -> 586 ;
587 [label="mse = 0.0\nsamples = 1\nvalue = 68400.0"] ;
586 -> 587 ;
588 [label="mse = 0.0\nsamples = 1\nvalue = 96500.0"] ;
586 -> 588 ;
589 [label="X[0] <= 9769.0\nmse = 246046875.0\nsamples = 4\nvalue = 148875.0"] ;
529 -> 589 ;
590 [label="mse = 0.0\nsamples = 1\nvalue = 169000.0"] ;
589 -> 590 ;
591 [label="X[0] <= 10110.0\nmse = 4860000.0\nsamples = 3\nvalue = 136800.0"] ;
589 -> 591 ;
592 [label="mse = 0.0\nsamples = 1\nvalue = 139500.0"] ;
591 -> 592 ;
593 [label="mse = 0.0\nsamples = 2\nvalue = 135000.0"] ;
591 -> 593 ;
594 [label="X[1] <= 2008.5\nmse = 3072728888.89\nsamples = 9\nvalue = 159733.3333"] ;
472 -> 594 ;
595 [label="X[0] <= 10460.0\nmse = 3498066115.7\nsamples = 7\nvalue = 172545.4545"] ;
594 -> 595 ;
596 [label="mse = 0.0\nsamples = 1\nvalue = 256000.0"] ;
595 -> 596 ;
597 [label="X[1] <= 2007.5\nmse = 2383777777.78\nsamples = 6\nvalue = 154000.0"] ;
595 -> 597 ;
598 [label="X[0] <= 10587.0\nmse = 3154560000.0\nsamples = 4\nvalue = 175200.0"] ;
597 -> 598 ;
599 [label="mse = 0.0\nsamples = 1\nvalue = 143000.0"] ;
598 -> 599 ;
600 [label="X[0] <= 10739.0\nmse = 4105555555.56\nsamples = 3\nvalue = 196666.6667"] ;
598 -> 600 ;
601 [label="mse = 0.0\nsamples = 1\nvalue = 285000.0"] ;
600 -> 601 ;
602 [label="mse = 306250000.0\nsamples = 2\nvalue = 152500.0"] ;
600 -> 602 ;
603 [label="X[0] <= 10705.0\nmse = 156250000.0\nsamples = 2\nvalue = 127500.0"] ;
597 -> 603 ;
604 [label="mse = 0.0\nsamples = 1\nvalue = 115000.0"] ;
603 -> 604 ;
605 [label="mse = 0.0\nsamples = 1\nvalue = 140000.0"] ;
603 -> 605 ;
606 [label="X[1] <= 2009.5\nmse = 210250000.0\nsamples = 2\nvalue = 124500.0"] ;
594 -> 606 ;
607 [label="mse = 0.0\nsamples = 1\nvalue = 110000.0"] ;
606 -> 607 ;
608 [label="mse = 0.0\nsamples = 1\nvalue = 139000.0"] ;
606 -> 608 ;
609 [label="X[2] <= 65.0\nmse = 3203275718.61\nsamples = 310\nvalue = 174581.5654"] ;
1 -> 609 ;
610 [label="X[0] <= 8636.5\nmse = 1991668005.6\nsamples = 101\nvalue = 209496.1282"] ;
609 -> 610 ;
611 [label="X[0] <= 5214.0\nmse = 624278502.41\nsamples = 31\nvalue = 185162.8085"] ;
610 -> 611 ;
612 [label="mse = 0.0\nsamples = 1\nvalue = 135000.0"] ;
611 -> 612 ;
613 [label="X[1] <= 2006.5\nmse = 535217847.396\nsamples = 30\nvalue = 187392.2667"] ;
611 -> 613 ;
614 [label="X[0] <= 7905.0\nmse = 114424181.0\nsamples = 5\nvalue = 168207.0"] ;
613 -> 614 ;
615 [label="X[0] <= 7371.5\nmse = 61409600.0\nsamples = 3\nvalue = 163420.0"] ;
614 -> 615 ;
616 [label="mse = 0.0\nsamples = 1\nvalue = 175900.0"] ;
615 -> 616 ;
617 [label="X[0] <= 7637.5\nmse = 28090000.0\nsamples = 2\nvalue = 160300.0"] ;
615 -> 617 ;
618 [label="mse = 0.0\nsamples = 1\nvalue = 155000.0"] ;
617 -> 618 ;
619 [label="mse = 0.0\nsamples = 1\nvalue = 165600.0"] ;
617 -> 619 ;
620 [label="X[0] <= 8293.0\nmse = 121608024.0\nsamples = 2\nvalue = 172994.0"] ;
614 -> 620 ;
621 [label="mse = 0.0\nsamples = 1\nvalue = 186500.0"] ;
620 -> 621 ;
622 [label="mse = 0.0\nsamples = 1\nvalue = 163990.0"] ;
620 -> 622 ;
623 [label="X[0] <= 7407.0\nmse = 520233584.176\nsamples = 25\nvalue = 192873.7714"] ;
613 -> 623 ;
624 [label="X[0] <= 7224.5\nmse = 37555555.5555\nsamples = 2\nvalue = 230333.3333"] ;
623 -> 624 ;
625 [label="mse = 0.0\nsamples = 1\nvalue = 226000.0"] ;
624 -> 625 ;
626 [label="mse = 0.0\nsamples = 1\nvalue = 239000.0"] ;
624 -> 626 ;
627 [label="X[0] <= 8480.5\nmse = 421599911.371\nsamples = 23\nvalue = 189361.9375"] ;
623 -> 627 ;
628 [label="X[0] <= 8065.5\nmse = 409143989.158\nsamples = 21\nvalue = 192219.6429"] ;
627 -> 628 ;
629 [label="X[0] <= 7545.0\nmse = 372295555.556\nsamples = 12\nvalue = 185266.6667"] ;
628 -> 629 ;
630 [label="X[0] <= 7486.0\nmse = 187440000.0\nsamples = 4\nvalue = 199600.0"] ;
629 -> 630 ;
631 [label="X[0] <= 7443.5\nmse = 20250000.0\nsamples = 2\nvalue = 188500.0"] ;
630 -> 631 ;
632 [label="mse = 0.0\nsamples = 1\nvalue = 193000.0"] ;
631 -> 632 ;
633 [label="mse = 0.0\nsamples = 1\nvalue = 184000.0"] ;
631 -> 633 ;
634 [label="mse = 162000000.0\nsamples = 2\nvalue = 207000.0"] ;
630 -> 634 ;
635 [label="X[0] <= 7747.5\nmse = 310640000.0\nsamples = 8\nvalue = 178100.0"] ;
629 -> 635 ;
636 [label="X[0] <= 7645.0\nmse = 52562500.0\nsamples = 2\nvalue = 162250.0"] ;
635 -> 636 ;
637 [label="mse = 0.0\nsamples = 1\nvalue = 169500.0"] ;
636 -> 637 ;
638 [label="mse = 0.0\nsamples = 1\nvalue = 155000.0"] ;
636 -> 638 ;
639 [label="X[1] <= 2009.5\nmse = 296652343.75\nsamples = 6\nvalue = 182062.5"] ;
635 -> 639 ;
640 [label="X[0] <= 7856.0\nmse = 145408163.265\nsamples = 5\nvalue = 177142.8571"] ;
639 -> 640 ;
641 [label="mse = 0.0\nsamples = 1\nvalue = 188500.0"] ;
640 -> 641 ;
642 [label="X[1] <= 2008.5\nmse = 131340000.0\nsamples = 4\nvalue = 172600.0"] ;
640 -> 642 ;
643 [label="X[1] <= 2007.5\nmse = 28222222.2222\nsamples = 3\nvalue = 181333.3333"] ;
642 -> 643 ;
644 [label="X[0] <= 7990.0\nmse = 9000000.0\nsamples = 2\nvalue = 178000.0"] ;
643 -> 644 ;
645 [label="mse = 0.0\nsamples = 1\nvalue = 175000.0"] ;
644 -> 645 ;
646 [label="mse = 0.0\nsamples = 1\nvalue = 181000.0"] ;
644 -> 646 ;
647 [label="mse = 0.0\nsamples = 1\nvalue = 188000.0"] ;
643 -> 647 ;
648 [label="mse = 0.0\nsamples = 1\nvalue = 159500.0"] ;
642 -> 648 ;
649 [label="mse = 0.0\nsamples = 1\nvalue = 216500.0"] ;
639 -> 649 ;
650 [label="X[0] <= 8222.0\nmse = 331516863.905\nsamples = 9\nvalue = 200242.3077"] ;
628 -> 650 ;
651 [label="X[0] <= 8141.5\nmse = 89943680.5556\nsamples = 4\nvalue = 215791.6667"] ;
650 -> 651 ;
652 [label="X[1] <= 2008.5\nmse = 8850625.0\nsamples = 2\nvalue = 202975.0"] ;
651 -> 652 ;
653 [label="mse = 0.0\nsamples = 1\nvalue = 205950.0"] ;
652 -> 653 ;
654 [label="mse = 0.0\nsamples = 1\nvalue = 200000.0"] ;
652 -> 654 ;
655 [label="X[0] <= 8179.0\nmse = 7290000.0\nsamples = 2\nvalue = 222200.0"] ;
651 -> 655 ;
656 [label="mse = 0.0\nsamples = 1\nvalue = 224900.0"] ;
655 -> 656 ;
657 [label="mse = 0.0\nsamples = 1\nvalue = 219500.0"] ;
655 -> 657 ;
658 [label="X[0] <= 8408.0\nmse = 153701224.49\nsamples = 5\nvalue = 186914.2857"] ;
650 -> 658 ;
659 [label="X[0] <= 8343.0\nmse = 31413600.0\nsamples = 3\nvalue = 179780.0"] ;
658 -> 659 ;
660 [label="X[0] <= 8282.0\nmse = 1280000.0\nsamples = 2\nvalue = 184300.0"] ;
659 -> 660 ;
661 [label="mse = 0.0\nsamples = 1\nvalue = 183500.0"] ;
660 -> 661 ;
662 [label="mse = 0.0\nsamples = 1\nvalue = 185900.0"] ;
660 -> 662 ;
663 [label="mse = 0.0\nsamples = 1\nvalue = 173000.0"] ;
659 -> 663 ;
664 [label="X[0] <= 8456.0\nmse = 14062500.0\nsamples = 2\nvalue = 204750.0"] ;
658 -> 664 ;
665 [label="mse = 0.0\nsamples = 1\nvalue = 208500.0"] ;
664 -> 665 ;
666 [label="mse = 0.0\nsamples = 1\nvalue = 201000.0"] ;
664 -> 666 ;
667 [label="X[1] <= 2008.0\nmse = 51468492.0\nsamples = 2\nvalue = 169358.0"] ;
627 -> 667 ;
668 [label="mse = 0.0\nsamples = 1\nvalue = 156932.0"] ;
667 -> 668 ;
669 [label="mse = 0.0\nsamples = 1\nvalue = 173500.0"] ;
667 -> 669 ;
670 [label="X[0] <= 10730.0\nmse = 2215873259.77\nsamples = 70\nvalue = 219988.4771"] ;
610 -> 670 ;
671 [label="X[0] <= 9524.0\nmse = 2160937319.48\nsamples = 64\nvalue = 223490.0396"] ;
670 -> 671 ;
672 [label="X[0] <= 8981.5\nmse = 1534122701.49\nsamples = 31\nvalue = 210387.5"] ;
671 -> 672 ;
673 [label="X[0] <= 8949.0\nmse = 1660426105.89\nsamples = 13\nvalue = 227125.0"] ;
672 -> 673 ;
674 [label="X[0] <= 8879.0\nmse = 1442945281.92\nsamples = 12\nvalue = 223087.5"] ;
673 -> 674 ;
675 [label="X[0] <= 8814.5\nmse = 1507254056.36\nsamples = 10\nvalue = 229171.6667"] ;
674 -> 675 ;
676 [label="X[1] <= 2006.5\nmse = 497607447.924\nsamples = 9\nvalue = 220541.0714"] ;
675 -> 676 ;
677 [label="X[0] <= 8749.0\nmse = 24005100.25\nsamples = 2\nvalue = 234899.5"] ;
676 -> 677 ;
678 [label="mse = 0.0\nsamples = 1\nvalue = 230000.0"] ;
677 -> 678 ;
679 [label="mse = 0.0\nsamples = 1\nvalue = 239799.0"] ;
677 -> 679 ;
680 [label="X[0] <= 8695.0\nmse = 582218340.438\nsamples = 7\nvalue = 209772.25"] ;
676 -> 680 ;
681 [label="mse = 0.0\nsamples = 1\nvalue = 252678.0"] ;
680 -> 681 ;
682 [label="X[1] <= 2007.5\nmse = 364836734.694\nsamples = 6\nvalue = 203642.8571"] ;
680 -> 682 ;
683 [label="mse = 0.0\nsamples = 1\nvalue = 169000.0"] ;
682 -> 683 ;
684 [label="X[0] <= 8793.0\nmse = 192284722.222\nsamples = 5\nvalue = 209416.6667"] ;
682 -> 684 ;
685 [label="X[0] <= 8752.5\nmse = 61140000.0\nsamples = 4\nvalue = 204100.0"] ;
684 -> 685 ;
686 [label="X[1] <= 2009.5\nmse = 22562500.0\nsamples = 2\nvalue = 195750.0"] ;
685 -> 686 ;
687 [label="mse = 0.0\nsamples = 1\nvalue = 191000.0"] ;
686 -> 687 ;
688 [label="mse = 0.0\nsamples = 1\nvalue = 200500.0"] ;
686 -> 688 ;
689 [label="X[1] <= 2008.5\nmse = 9388888.8889\nsamples = 2\nvalue = 209666.6667"] ;
685 -> 689 ;
690 [label="mse = 0.0\nsamples = 1\nvalue = 207500.0"] ;
689 -> 690 ;
691 [label="mse = 0.0\nsamples = 1\nvalue = 214000.0"] ;
689 -> 691 ;
692 [label="mse = 0.0\nsamples = 1\nvalue = 236000.0"] ;
684 -> 692 ;
693 [label="mse = 0.0\nsamples = 1\nvalue = 350000.0"] ;
675 -> 693 ;
694 [label="X[0] <= 8929.5\nmse = 10888888.8889\nsamples = 2\nvalue = 192666.6667"] ;
674 -> 694 ;
695 [label="mse = 0.0\nsamples = 1\nvalue = 188000.0"] ;
694 -> 695 ;
696 [label="mse = 0.0\nsamples = 1\nvalue = 195000.0"] ;
694 -> 696 ;
697 [label="mse = 0.0\nsamples = 1\nvalue = 299800.0"] ;
673 -> 697 ;
698 [label="X[0] <= 9486.5\nmse = 1179773673.26\nsamples = 18\nvalue = 200129.0323"] ;
672 -> 698 ;
699 [label="X[0] <= 9369.5\nmse = 1159792091.84\nsamples = 17\nvalue = 203892.8571"] ;
698 -> 699 ;
700 [label="X[0] <= 9338.5\nmse = 1093135000.0\nsamples = 12\nvalue = 193200.0"] ;
699 -> 700 ;
701 [label="X[1] <= 2006.5\nmse = 1061626543.21\nsamples = 11\nvalue = 197111.1111"] ;
700 -> 701 ;
702 [label="X[0] <= 9070.0\nmse = 500000.0\nsamples = 2\nvalue = 177000.0"] ;
701 -> 702 ;
703 [label="mse = 0.0\nsamples = 1\nvalue = 178000.0"] ;
702 -> 703 ;
704 [label="mse = 0.0\nsamples = 1\nvalue = 176500.0"] ;
702 -> 704 ;
705 [label="X[0] <= 9223.5\nmse = 1176782222.22\nsamples = 9\nvalue = 201133.3333"] ;
701 -> 705 ;
706 [label="X[0] <= 9165.0\nmse = 1526410000.0\nsamples = 6\nvalue = 207700.0"] ;
705 -> 706 ;
707 [label="X[0] <= 9093.0\nmse = 274617283.951\nsamples = 5\nvalue = 195777.7778"] ;
706 -> 707 ;
708 [label="X[0] <= 9054.0\nmse = 199360000.0\nsamples = 3\nvalue = 206800.0"] ;
707 -> 708 ;
709 [label="X[1] <= 2008.5\nmse = 81000000.0\nsamples = 2\nvalue = 201000.0"] ;
708 -> 709 ;
710 [label="mse = 0.0\nsamples = 1\nvalue = 192000.0"] ;
709 -> 710 ;
711 [label="mse = 0.0\nsamples = 1\nvalue = 210000.0"] ;
709 -> 711 ;
712 [label="mse = 0.0\nsamples = 1\nvalue = 230000.0"] ;
708 -> 712 ;
713 [label="X[0] <= 9125.0\nmse = 27000000.0\nsamples = 2\nvalue = 182000.0"] ;
707 -> 713 ;
714 [label="mse = 0.0\nsamples = 1\nvalue = 185000.0"] ;
713 -> 714 ;
715 [label="mse = 0.0\nsamples = 1\nvalue = 173000.0"] ;
713 -> 715 ;
716 [label="mse = 0.0\nsamples = 1\nvalue = 315000.0"] ;
706 -> 716 ;
717 [label="X[0] <= 9275.0\nmse = 218800000.0\nsamples = 3\nvalue = 188000.0"] ;
705 -> 717 ;
718 [label="mse = 0.0\nsamples = 1\nvalue = 171000.0"] ;
717 -> 718 ;
719 [label="X[1] <= 2008.0\nmse = 43555555.5556\nsamples = 2\nvalue = 199333.3333"] ;
717 -> 719 ;
720 [label="mse = 0.0\nsamples = 1\nvalue = 204000.0"] ;
719 -> 720 ;
721 [label="mse = 0.0\nsamples = 1\nvalue = 190000.0"] ;
719 -> 721 ;
722 [label="mse = 0.0\nsamples = 1\nvalue = 158000.0"] ;
700 -> 722 ;
723 [label="X[1] <= 2009.5\nmse = 325984375.0\nsamples = 5\nvalue = 230625.0"] ;
699 -> 723 ;
724 [label="X[1] <= 2007.5\nmse = 159489795.918\nsamples = 4\nvalue = 235785.7143"] ;
723 -> 724 ;
725 [label="mse = 0.0\nsamples = 1\nvalue = 228500.0"] ;
724 -> 725 ;
726 [label="X[0] <= 9424.0\nmse = 193560000.0\nsamples = 3\nvalue = 238700.0"] ;
724 -> 726 ;
727 [label="mse = 473062500.0\nsamples = 2\nvalue = 241250.0"] ;
726 -> 727 ;
728 [label="mse = 0.0\nsamples = 1\nvalue = 237000.0"] ;
726 -> 728 ;
729 [label="mse = 0.0\nsamples = 1\nvalue = 194500.0"] ;
723 -> 729 ;
730 [label="mse = 0.0\nsamples = 1\nvalue = 165000.0"] ;
698 -> 730 ;
731 [label="X[1] <= 2007.5\nmse = 2442140982.81\nsamples = 33\nvalue = 236335.6667"] ;
671 -> 731 ;
732 [label="X[0] <= 9997.0\nmse = 3690359377.46\nsamples = 15\nvalue = 260272.3333"] ;
731 -> 732 ;
733 [label="X[0] <= 9957.5\nmse = 2305641910.94\nsamples = 4\nvalue = 299221.25"] ;
732 -> 733 ;
734 [label="X[0] <= 9850.0\nmse = 57450612.2449\nsamples = 3\nvalue = 281271.4286"] ;
733 -> 734 ;
735 [label="X[0] <= 9669.0\nmse = 541875.0\nsamples = 2\nvalue = 274725.0"] ;
734 -> 735 ;
736 [label="mse = 0.0\nsamples = 1\nvalue = 276000.0"] ;
735 -> 736 ;
737 [label="mse = 0.0\nsamples = 1\nvalue = 274300.0"] ;
735 -> 737 ;
738 [label="mse = 0.0\nsamples = 1\nvalue = 290000.0"] ;
734 -> 738 ;
739 [label="mse = 0.0\nsamples = 1\nvalue = 424870.0"] ;
733 -> 739 ;
740 [label="X[0] <= 10512.5\nmse = 3034451532.02\nsamples = 11\nvalue = 236303.7692"] ;
732 -> 740 ;
741 [label="X[0] <= 10372.0\nmse = 2567077026.91\nsamples = 10\nvalue = 228860.4167"] ;
740 -> 741 ;
742 [label="X[1] <= 2006.5\nmse = 1895848115.23\nsamples = 7\nvalue = 217409.375"] ;
741 -> 742 ;
743 [label="X[0] <= 10080.5\nmse = 910055555.556\nsamples = 3\nvalue = 261833.3333"] ;
742 -> 743 ;
744 [label="mse = 0.0\nsamples = 1\nvalue = 220000.0"] ;
743 -> 744 ;
745 [label="X[0] <= 10180.0\nmse = 52562500.0\nsamples = 2\nvalue = 282750.0"] ;
743 -> 745 ;
746 [label="mse = 0.0\nsamples = 1\nvalue = 290000.0"] ;
745 -> 746 ;
747 [label="mse = 0.0\nsamples = 1\nvalue = 275500.0"] ;
745 -> 747 ;
748 [label="X[0] <= 10222.0\nmse = 592775100.0\nsamples = 4\nvalue = 190755.0"] ;
742 -> 748 ;
749 [label="X[0] <= 10118.0\nmse = 71191406.25\nsamples = 2\nvalue = 219437.5"] ;
748 -> 749 ;
750 [label="mse = 0.0\nsamples = 1\nvalue = 211000.0"] ;
749 -> 750 ;
751 [label="mse = 0.0\nsamples = 1\nvalue = 227875.0"] ;
749 -> 751 ;
752 [label="X[0] <= 10300.5\nmse = 26402222.2222\nsamples = 2\nvalue = 171633.3333"] ;
748 -> 752 ;
753 [label="mse = 0.0\nsamples = 1\nvalue = 178900.0"] ;
752 -> 753 ;
754 [label="mse = 0.0\nsamples = 1\nvalue = 168000.0"] ;
752 -> 754 ;
755 [label="X[0] <= 10390.0\nmse = 3122776718.75\nsamples = 3\nvalue = 251762.5"] ;
741 -> 755 ;
756 [label="mse = 0.0\nsamples = 1\nvalue = 301000.0"] ;
755 -> 756 ;
757 [label="X[0] <= 10431.5\nmse = 1396890625.0\nsamples = 2\nvalue = 202525.0"] ;
755 -> 757 ;
758 [label="mse = 0.0\nsamples = 1\nvalue = 165150.0"] ;
757 -> 758 ;
759 [label="mse = 0.0\nsamples = 1\nvalue = 239900.0"] ;
757 -> 759 ;
760 [label="mse = 0.0\nsamples = 1\nvalue = 325624.0"] ;
740 -> 760 ;
761 [label="X[0] <= 10527.0\nmse = 886560933.333\nsamples = 18\nvalue = 219580.0"] ;
731 -> 761 ;
762 [label="X[1] <= 2009.5\nmse = 614668263.889\nsamples = 15\nvalue = 212141.6667"] ;
761 -> 762 ;
763 [label="X[0] <= 9784.0\nmse = 579324648.438\nsamples = 11\nvalue = 202868.75"] ;
762 -> 763 ;
764 [label="X[1] <= 2008.5\nmse = 64980000.0\nsamples = 2\nvalue = 173600.0"] ;
763 -> 764 ;
765 [label="mse = 0.0\nsamples = 1\nvalue = 167900.0"] ;
764 -> 765 ;
766 [label="mse = 0.0\nsamples = 1\nvalue = 185000.0"] ;
764 -> 766 ;
767 [label="X[0] <= 9952.5\nmse = 454707928.994\nsamples = 9\nvalue = 209623.0769"] ;
763 -> 767 ;
768 [label="X[0] <= 9851.5\nmse = 277222500.0\nsamples = 2\nvalue = 243350.0"] ;
767 -> 768 ;
769 [label="mse = 0.0\nsamples = 1\nvalue = 226700.0"] ;
768 -> 769 ;
770 [label="mse = 0.0\nsamples = 1\nvalue = 260000.0"] ;
768 -> 770 ;
771 [label="X[0] <= 10310.0\nmse = 242555371.901\nsamples = 7\nvalue = 203490.9091"] ;
767 -> 771 ;
772 [label="X[0] <= 10282.5\nmse = 16940000.0\nsamples = 3\nvalue = 193100.0"] ;
771 -> 772 ;
773 [label="X[0] <= 10133.0\nmse = 6722222.2222\nsamples = 2\nvalue = 190166.6667"] ;
772 -> 773 ;
774 [label="mse = 0.0\nsamples = 1\nvalue = 192000.0"] ;
773 -> 774 ;
775 [label="mse = 0.0\nsamples = 1\nvalue = 186500.0"] ;
773 -> 775 ;
776 [label="mse = 0.0\nsamples = 1\nvalue = 197500.0"] ;
772 -> 776 ;
777 [label="X[0] <= 10349.0\nmse = 265612500.0\nsamples = 4\nvalue = 212150.0"] ;
771 -> 777 ;
778 [label="mse = 0.0\nsamples = 1\nvalue = 235000.0"] ;
777 -> 778 ;
779 [label="X[1] <= 2008.5\nmse = 6826875.0\nsamples = 3\nvalue = 200725.0"] ;
777 -> 779 ;
780 [label="mse = 0.0\nsamples = 1\nvalue = 205000.0"] ;
779 -> 780 ;
781 [label="X[0] <= 10391.0\nmse = 980000.0\nsamples = 2\nvalue = 199300.0"] ;
779 -> 781 ;
782 [label="mse = 0.0\nsamples = 1\nvalue = 200000.0"] ;
781 -> 782 ;
783 [label="mse = 0.0\nsamples = 1\nvalue = 197900.0"] ;
781 -> 783 ;
784 [label="X[0] <= 10281.5\nmse = 169433593.75\nsamples = 4\nvalue = 230687.5"] ;
762 -> 784 ;
785 [label="X[0] <= 10040.0\nmse = 2816326.5306\nsamples = 3\nvalue = 235571.4286"] ;
784 -> 785 ;
786 [label="X[0] <= 9743.0\nmse = 240000.0\nsamples = 2\nvalue = 236600.0"] ;
785 -> 786 ;
787 [label="mse = 0.0\nsamples = 1\nvalue = 237000.0"] ;
786 -> 787 ;
788 [label="mse = 0.0\nsamples = 1\nvalue = 236000.0"] ;
786 -> 788 ;
789 [label="mse = 0.0\nsamples = 1\nvalue = 233000.0"] ;
785 -> 789 ;
790 [label="mse = 0.0\nsamples = 1\nvalue = 196500.0"] ;
784 -> 790 ;
791 [label="X[0] <= 10646.0\nmse = 867555555.556\nsamples = 3\nvalue = 249333.3333"] ;
761 -> 791 ;
792 [label="X[1] <= 2008.5\nmse = 256000000.0\nsamples = 2\nvalue = 268000.0"] ;
791 -> 792 ;
793 [label="mse = 0.0\nsamples = 1\nvalue = 284000.0"] ;
792 -> 793 ;
794 [label="mse = 0.0\nsamples = 1\nvalue = 252000.0"] ;
792 -> 794 ;
795 [label="mse = 0.0\nsamples = 1\nvalue = 212000.0"] ;
791 -> 795 ;
796 [label="X[1] <= 2007.5\nmse = 800366210.938\nsamples = 6\nvalue = 175781.25"] ;
670 -> 796 ;
797 [label="X[1] <= 2006.5\nmse = 82687500.0\nsamples = 2\nvalue = 157250.0"] ;
796 -> 797 ;
798 [label="mse = 0.0\nsamples = 1\nvalue = 173000.0"] ;
797 -> 798 ;
799 [label="mse = 0.0\nsamples = 1\nvalue = 152000.0"] ;
797 -> 799 ;
800 [label="X[0] <= 10816.0\nmse = 831230468.75\nsamples = 4\nvalue = 194312.5"] ;
796 -> 800 ;
801 [label="mse = 0.0\nsamples = 1\nvalue = 240000.0"] ;
800 -> 801 ;
802 [label="X[1] <= 2009.0\nmse = 180597222.222\nsamples = 3\nvalue = 179083.3333"] ;
800 -> 802 ;
803 [label="X[0] <= 10835.5\nmse = 45562500.0\nsamples = 2\nvalue = 187750.0"] ;
802 -> 803 ;
804 [label="mse = 0.0\nsamples = 1\nvalue = 194500.0"] ;
803 -> 804 ;
805 [label="mse = 0.0\nsamples = 1\nvalue = 181000.0"] ;
803 -> 805 ;
806 [label="mse = 0.0\nsamples = 1\nvalue = 161750.0"] ;
802 -> 806 ;
807 [label="X[2] <= 140.0\nmse = 2906271302.56\nsamples = 209\nvalue = 157453.6667"] ;
609 -> 807 ;
808 [label="X[2] <= 105.0\nmse = 3059418783.03\nsamples = 151\nvalue = 168165.9313"] ;
807 -> 808 ;
809 [label="X[0] <= 10550.0\nmse = 1544360857.01\nsamples = 89\nvalue = 145872.223"] ;
808 -> 809 ;
810 [label="X[0] <= 6743.5\nmse = 1004162427.92\nsamples = 82\nvalue = 139735.7984"] ;
809 -> 810 ;
811 [label="X[0] <= 3050.0\nmse = 592110440.992\nsamples = 9\nvalue = 110373.0909"] ;
810 -> 811 ;
812 [label="mse = 0.0\nsamples = 1\nvalue = 155000.0"] ;
811 -> 812 ;
813 [label="X[1] <= 2007.5\nmse = 432249773.44\nsamples = 8\nvalue = 105910.4"] ;
811 -> 813 ;
814 [label="X[0] <= 4860.0\nmse = 117514670.222\nsamples = 2\nvalue = 129834.6667"] ;
813 -> 814 ;
815 [label="mse = 0.0\nsamples = 1\nvalue = 114504.0"] ;
814 -> 815 ;
816 [label="mse = 0.0\nsamples = 1\nvalue = 137500.0"] ;
814 -> 816 ;
817 [label="X[0] <= 5780.0\nmse = 216705306.122\nsamples = 6\nvalue = 95657.1429"] ;
813 -> 817 ;
818 [label="X[0] <= 4910.5\nmse = 104000000.0\nsamples = 3\nvalue = 108000.0"] ;
817 -> 818 ;
819 [label="mse = 0.0\nsamples = 1\nvalue = 98000.0"] ;
818 -> 819 ;
820 [label="X[1] <= 2008.5\nmse = 81000000.0\nsamples = 2\nvalue = 113000.0"] ;
818 -> 820 ;
821 [label="mse = 0.0\nsamples = 1\nvalue = 122000.0"] ;
820 -> 821 ;
822 [label="mse = 0.0\nsamples = 1\nvalue = 104000.0"] ;
820 -> 822 ;
823 [label="X[0] <= 6515.5\nmse = 101280000.0\nsamples = 3\nvalue = 86400.0"] ;
817 -> 823 ;
824 [label="X[2] <= 80.0\nmse = 3555555.5556\nsamples = 2\nvalue = 80666.6667"] ;
823 -> 824 ;
825 [label="mse = 0.0\nsamples = 1\nvalue = 78000.0"] ;
824 -> 825 ;
826 [label="mse = 0.0\nsamples = 1\nvalue = 82000.0"] ;
824 -> 826 ;
827 [label="mse = 0.0\nsamples = 1\nvalue = 103600.0"] ;
823 -> 827 ;
828 [label="X[2] <= 77.5\nmse = 952175793.288\nsamples = 73\nvalue = 142594.115"] ;
810 -> 828 ;
829 [label="X[1] <= 2009.5\nmse = 1872538099.49\nsamples = 21\nvalue = 130789.2857"] ;
828 -> 829 ;
830 [label="X[0] <= 8044.0\nmse = 1429598903.59\nsamples = 17\nvalue = 124439.1304"] ;
829 -> 830 ;
831 [label="X[1] <= 2006.5\nmse = 1405101875.0\nsamples = 4\nvalue = 148025.0"] ;
830 -> 831 ;
832 [label="mse = 0.0\nsamples = 1\nvalue = 200100.0"] ;
831 -> 832 ;
833 [label="X[0] <= 7164.0\nmse = 668222222.222\nsamples = 3\nvalue = 130666.6667"] ;
831 -> 833 ;
834 [label="X[2] <= 72.5\nmse = 342250000.0\nsamples = 2\nvalue = 145500.0"] ;
833 -> 834 ;
835 [label="mse = 0.0\nsamples = 1\nvalue = 127000.0"] ;
834 -> 835 ;
836 [label="mse = 0.0\nsamples = 1\nvalue = 164000.0"] ;
834 -> 836 ;
837 [label="mse = 0.0\nsamples = 1\nvalue = 101000.0"] ;
833 -> 837 ;
838 [label="X[0] <= 8512.5\nmse = 1292986149.58\nsamples = 13\nvalue = 119473.6842"] ;
830 -> 838 ;
839 [label="mse = 0.0\nsamples = 1\nvalue = 40000.0"] ;
838 -> 839 ;
840 [label="X[1] <= 2007.5\nmse = 614615916.955\nsamples = 12\nvalue = 128823.5294"] ;
838 -> 840 ;
841 [label="X[0] <= 9575.0\nmse = 366049586.777\nsamples = 7\nvalue = 119636.3636"] ;
840 -> 841 ;
842 [label="X[0] <= 9240.0\nmse = 68921875.0\nsamples = 3\nvalue = 137625.0"] ;
841 -> 842 ;
843 [label="mse = 0.0\nsamples = 1\nvalue = 124000.0"] ;
842 -> 843 ;
844 [label="X[0] <= 9515.0\nmse = 9388888.8889\nsamples = 2\nvalue = 142166.6667"] ;
842 -> 844 ;
845 [label="mse = 0.0\nsamples = 1\nvalue = 146500.0"] ;
844 -> 845 ;
846 [label="mse = 0.0\nsamples = 1\nvalue = 140000.0"] ;
844 -> 846 ;
847 [label="X[1] <= 2006.5\nmse = 245265306.122\nsamples = 4\nvalue = 109357.1429"] ;
841 -> 847 ;
848 [label="X[0] <= 9753.0\nmse = 88888888.8889\nsamples = 2\nvalue = 93666.6667"] ;
847 -> 848 ;
849 [label="mse = 0.0\nsamples = 1\nvalue = 87000.0"] ;
848 -> 849 ;
850 [label="mse = 0.0\nsamples = 1\nvalue = 107000.0"] ;
848 -> 850 ;
851 [label="X[0] <= 9750.0\nmse = 39421875.0\nsamples = 2\nvalue = 121125.0"] ;
847 -> 851 ;
852 [label="mse = 0.0\nsamples = 1\nvalue = 132000.0"] ;
851 -> 852 ;
853 [label="mse = 0.0\nsamples = 1\nvalue = 117500.0"] ;
851 -> 853 ;
854 [label="X[0] <= 9342.0\nmse = 631888888.889\nsamples = 5\nvalue = 145666.6667"] ;
840 -> 854 ;
855 [label="X[0] <= 9042.0\nmse = 204500000.0\nsamples = 3\nvalue = 131000.0"] ;
854 -> 855 ;
856 [label="X[1] <= 2008.5\nmse = 37555555.5556\nsamples = 2\nvalue = 138666.6667"] ;
855 -> 856 ;
857 [label="mse = 0.0\nsamples = 1\nvalue = 130000.0"] ;
856 -> 857 ;
858 [label="mse = 0.0\nsamples = 1\nvalue = 143000.0"] ;
856 -> 858 ;
859 [label="mse = 0.0\nsamples = 1\nvalue = 108000.0"] ;
855 -> 859 ;
860 [label="X[0] <= 9721.0\nmse = 196000000.0\nsamples = 2\nvalue = 175000.0"] ;
854 -> 860 ;
861 [label="mse = 0.0\nsamples = 1\nvalue = 161000.0"] ;
860 -> 861 ;
862 [label="mse = 0.0\nsamples = 1\nvalue = 189000.0"] ;
860 -> 862 ;
863 [label="X[0] <= 8391.0\nmse = 2871300000.0\nsamples = 4\nvalue = 160000.0"] ;
829 -> 863 ;
864 [label="X[0] <= 7299.0\nmse = 1562500.0\nsamples = 2\nvalue = 126750.0"] ;
863 -> 864 ;
865 [label="mse = 0.0\nsamples = 1\nvalue = 128000.0"] ;
864 -> 865 ;
866 [label="mse = 0.0\nsamples = 1\nvalue = 125500.0"] ;
864 -> 866 ;
867 [label="X[0] <= 9671.0\nmse = 3556055555.56\nsamples = 2\nvalue = 182166.6667"] ;
863 -> 867 ;
868 [label="mse = 0.0\nsamples = 1\nvalue = 266500.0"] ;
867 -> 868 ;
869 [label="mse = 0.0\nsamples = 1\nvalue = 140000.0"] ;
867 -> 869 ;
870 [label="X[2] <= 82.5\nmse = 587971180.062\nsamples = 52\nvalue = 146482.7647"] ;
828 -> 870 ;
871 [label="X[0] <= 8500.5\nmse = 286123326.759\nsamples = 26\nvalue = 158435.8974"] ;
870 -> 871 ;
872 [label="X[0] <= 7475.0\nmse = 231419408.284\nsamples = 9\nvalue = 141953.8462"] ;
871 -> 872 ;
873 [label="X[1] <= 2008.0\nmse = 5555555.5556\nsamples = 3\nvalue = 128333.3333"] ;
872 -> 873 ;
874 [label="mse = 0.0\nsamples = 2\nvalue = 130000.0"] ;
873 -> 874 ;
875 [label="mse = 0.0\nsamples = 1\nvalue = 125000.0"] ;
873 -> 875 ;
876 [label="X[1] <= 2008.5\nmse = 226826400.0\nsamples = 6\nvalue = 146040.0"] ;
872 -> 876 ;
877 [label="X[0] <= 7923.5\nmse = 73194320.9877\nsamples = 5\nvalue = 141811.1111"] ;
876 -> 877 ;
878 [label="mse = 0.0\nsamples = 1\nvalue = 127000.0"] ;
877 -> 878 ;
879 [label="X[0] <= 8274.0\nmse = 13522448.9796\nsamples = 4\nvalue = 146042.8571"] ;
877 -> 879 ;
880 [label="X[0] <= 8050.0\nmse = 46875.0\nsamples = 2\nvalue = 142875.0"] ;
879 -> 880 ;
881 [label="mse = 0.0\nsamples = 1\nvalue = 142500.0"] ;
880 -> 881 ;
882 [label="mse = 0.0\nsamples = 1\nvalue = 143000.0"] ;
880 -> 882 ;
883 [label="X[1] <= 2007.0\nmse = 268888.8889\nsamples = 2\nvalue = 150266.6667"] ;
879 -> 883 ;
884 [label="mse = 0.0\nsamples = 1\nvalue = 151000.0"] ;
883 -> 884 ;
885 [label="mse = 0.0\nsamples = 1\nvalue = 149900.0"] ;
883 -> 885 ;
886 [label="mse = 0.0\nsamples = 1\nvalue = 184100.0"] ;
876 -> 886 ;
887 [label="X[0] <= 10297.5\nmse = 109731775.148\nsamples = 17\nvalue = 166676.9231"] ;
871 -> 887 ;
888 [label="X[0] <= 9470.0\nmse = 48505619.8347\nsamples = 14\nvalue = 170027.2727"] ;
887 -> 888 ;
889 [label="X[0] <= 9072.5\nmse = 16192396.6942\nsamples = 6\nvalue = 165918.1818"] ;
888 -> 889 ;
890 [label="X[0] <= 8775.0\nmse = 7680000.0\nsamples = 3\nvalue = 170100.0"] ;
889 -> 890 ;
891 [label="mse = 0.0\nsamples = 1\nvalue = 168500.0"] ;
890 -> 891 ;
892 [label="mse = 10240000.0\nsamples = 2\nvalue = 171700.0"] ;
890 -> 892 ;
893 [label="X[0] <= 9250.0\nmse = 5353469.3878\nsamples = 3\nvalue = 163528.5714"] ;
889 -> 893 ;
894 [label="X[0] <= 9137.5\nmse = 302500.0\nsamples = 2\nvalue = 164450.0"] ;
893 -> 894 ;
895 [label="mse = 0.0\nsamples = 1\nvalue = 163900.0"] ;
894 -> 895 ;
896 [label="mse = 0.0\nsamples = 1\nvalue = 165000.0"] ;
894 -> 896 ;
897 [label="mse = 0.0\nsamples = 1\nvalue = 158000.0"] ;
893 -> 897 ;
898 [label="X[0] <= 9595.0\nmse = 47049586.7769\nsamples = 8\nvalue = 174136.3636"] ;
888 -> 898 ;
899 [label="mse = 0.0\nsamples = 1\nvalue = 187500.0"] ;
898 -> 899 ;
900 [label="X[0] <= 9667.5\nmse = 32110000.0\nsamples = 7\nvalue = 172800.0"] ;
898 -> 900 ;
901 [label="X[1] <= 2007.5\nmse = 115562500.0\nsamples = 2\nvalue = 176250.0"] ;
900 -> 901 ;
902 [label="mse = 0.0\nsamples = 1\nvalue = 187000.0"] ;
901 -> 902 ;
903 [label="mse = 0.0\nsamples = 1\nvalue = 165500.0"] ;
901 -> 903 ;
904 [label="X[0] <= 10196.0\nmse = 7527343.75\nsamples = 5\nvalue = 171937.5"] ;
900 -> 904 ;
905 [label="X[1] <= 2008.5\nmse = 3040000.0\nsamples = 4\nvalue = 170100.0"] ;
904 -> 905 ;
906 [label="X[0] <= 9851.0\nmse = 1171875.0\nsamples = 3\nvalue = 169375.0"] ;
905 -> 906 ;
907 [label="mse = 0.0\nsamples = 1\nvalue = 167500.0"] ;
906 -> 907 ;
908 [label="mse = 0.0\nsamples = 2\nvalue = 170000.0"] ;
906 -> 908 ;
909 [label="mse = 0.0\nsamples = 1\nvalue = 173000.0"] ;
905 -> 909 ;
910 [label="mse = 0.0\nsamples = 1\nvalue = 175000.0"] ;
904 -> 910 ;
911 [label="X[1] <= 2008.0\nmse = 45187500.0\nsamples = 3\nvalue = 148250.0"] ;
887 -> 911 ;
912 [label="X[0] <= 10447.5\nmse = 18000000.0\nsamples = 2\nvalue = 145000.0"] ;
911 -> 912 ;
913 [label="mse = 0.0\nsamples = 1\nvalue = 148000.0"] ;
912 -> 913 ;
914 [label="mse = 0.0\nsamples = 1\nvalue = 139000.0"] ;
912 -> 914 ;
915 [label="mse = 0.0\nsamples = 1\nvalue = 158000.0"] ;
911 -> 915 ;
916 [label="X[0] <= 7130.0\nmse = 620048933.982\nsamples = 26\nvalue = 136348.587"] ;
870 -> 916 ;
917 [label="X[0] <= 7046.0\nmse = 1247536120.62\nsamples = 4\nvalue = 157937.2222"] ;
916 -> 917 ;
918 [label="X[0] <= 7025.0\nmse = 117085475.139\nsamples = 3\nvalue = 133755.8333"] ;
917 -> 918 ;
919 [label="mse = 139336566.0\nsamples = 2\nvalue = 133315.0"] ;
918 -> 919 ;
920 [label="mse = 0.0\nsamples = 1\nvalue = 135960.0"] ;
918 -> 920 ;
921 [label="mse = 0.0\nsamples = 1\nvalue = 206300.0"] ;
917 -> 921 ;
922 [label="X[2] <= 87.5\nmse = 326472695.398\nsamples = 22\nvalue = 131097.2973"] ;
916 -> 922 ;
923 [label="X[1] <= 2007.5\nmse = 87915000.0\nsamples = 11\nvalue = 139800.0"] ;
922 -> 923 ;
924 [label="X[0] <= 7970.0\nmse = 88214285.7143\nsamples = 5\nvalue = 144500.0"] ;
923 -> 924 ;
925 [label="mse = 0.0\nsamples = 1\nvalue = 156000.0"] ;
924 -> 925 ;
926 [label="X[0] <= 8623.0\nmse = 49440000.0\nsamples = 4\nvalue = 139900.0"] ;
924 -> 926 ;
927 [label="mse = 0.0\nsamples = 1\nvalue = 129000.0"] ;
926 -> 927 ;
928 [label="X[0] <= 9692.5\nmse = 24671875.0\nsamples = 3\nvalue = 142625.0"] ;
926 -> 928 ;
929 [label="X[1] <= 2006.5\nmse = 3555555.5555\nsamples = 2\nvalue = 145333.3333"] ;
928 -> 929 ;
930 [label="mse = 0.0\nsamples = 1\nvalue = 148000.0"] ;
929 -> 930 ;
931 [label="mse = 0.0\nsamples = 1\nvalue = 144000.0"] ;
929 -> 931 ;
932 [label="mse = 0.0\nsamples = 1\nvalue = 134500.0"] ;
928 -> 932 ;
933 [label="X[0] <= 8920.5\nmse = 69454437.8698\nsamples = 6\nvalue = 137269.2308"] ;
923 -> 933 ;
934 [label="X[0] <= 8592.5\nmse = 1424691.358\nsamples = 4\nvalue = 134055.5556"] ;
933 -> 934 ;
935 [label="X[0] <= 7848.5\nmse = 383593.75\nsamples = 3\nvalue = 133687.5"] ;
934 -> 935 ;
936 [label="X[0] <= 7226.0\nmse = 160000.0\nsamples = 2\nvalue = 134100.0"] ;
935 -> 936 ;
937 [label="mse = 0.0\nsamples = 1\nvalue = 133900.0"] ;
936 -> 937 ;
938 [label="mse = 0.0\nsamples = 1\nvalue = 134900.0"] ;
936 -> 938 ;
939 [label="mse = 0.0\nsamples = 1\nvalue = 133000.0"] ;
935 -> 939 ;
940 [label="mse = 0.0\nsamples = 1\nvalue = 137000.0"] ;
934 -> 940 ;
941 [label="X[0] <= 9556.5\nmse = 147000000.0\nsamples = 2\nvalue = 144500.0"] ;
933 -> 941 ;
942 [label="mse = 0.0\nsamples = 1\nvalue = 165500.0"] ;
941 -> 942 ;
943 [label="mse = 0.0\nsamples = 1\nvalue = 137500.0"] ;
941 -> 943 ;
944 [label="X[1] <= 2008.5\nmse = 413200069.204\nsamples = 11\nvalue = 120858.8235"] ;
922 -> 944 ;
945 [label="X[0] <= 8660.5\nmse = 337179408.284\nsamples = 8\nvalue = 127446.1538"] ;
944 -> 945 ;
946 [label="X[0] <= 8468.5\nmse = 676171875.0\nsamples = 3\nvalue = 113125.0"] ;
945 -> 946 ;
947 [label="X[0] <= 8060.5\nmse = 39062500.0\nsamples = 2\nvalue = 138750.0"] ;
946 -> 947 ;
948 [label="mse = 0.0\nsamples = 1\nvalue = 132500.0"] ;
947 -> 948 ;
949 [label="mse = 0.0\nsamples = 1\nvalue = 145000.0"] ;
947 -> 949 ;
950 [label="mse = 0.0\nsamples = 1\nvalue = 87500.0"] ;
946 -> 950 ;
951 [label="X[0] <= 8938.5\nmse = 54849876.5432\nsamples = 5\nvalue = 133811.1111"] ;
945 -> 951 ;
952 [label="mse = 0.0\nsamples = 1\nvalue = 145900.0"] ;
951 -> 952 ;
953 [label="X[1] <= 2007.0\nmse = 16836734.6939\nsamples = 4\nvalue = 130357.1429"] ;
951 -> 953 ;
954 [label="X[0] <= 9965.0\nmse = 11500000.0\nsamples = 3\nvalue = 128500.0"] ;
953 -> 954 ;
955 [label="X[0] <= 9250.0\nmse = 1171875.0\nsamples = 2\nvalue = 126875.0"] ;
954 -> 955 ;
956 [label="mse = 0.0\nsamples = 1\nvalue = 125000.0"] ;
955 -> 956 ;
957 [label="mse = 0.0\nsamples = 1\nvalue = 127500.0"] ;
955 -> 957 ;
958 [label="mse = 0.0\nsamples = 1\nvalue = 135000.0"] ;
954 -> 958 ;
959 [label="mse = 0.0\nsamples = 1\nvalue = 135000.0"] ;
953 -> 959 ;
960 [label="X[1] <= 2009.5\nmse = 60902500.0\nsamples = 3\nvalue = 99450.0"] ;
944 -> 960 ;
961 [label="mse = 0.0\nsamples = 1\nvalue = 92900.0"] ;
960 -> 961 ;
962 [label="X[0] <= 9377.5\nmse = 36000000.0\nsamples = 2\nvalue = 106000.0"] ;
960 -> 962 ;
963 [label="mse = 0.0\nsamples = 1\nvalue = 112000.0"] ;
962 -> 963 ;
964 [label="mse = 0.0\nsamples = 1\nvalue = 100000.0"] ;
962 -> 964 ;
965 [label="X[0] <= 10581.0\nmse = 3125406666.67\nsamples = 7\nvalue = 196600.0"] ;
809 -> 965 ;
966 [label="mse = 0.0\nsamples = 1\nvalue = 315000.0"] ;
965 -> 966 ;
967 [label="X[0] <= 10859.0\nmse = 1117736686.39\nsamples = 6\nvalue = 178384.6154"] ;
965 -> 967 ;
968 [label="X[1] <= 2008.0\nmse = 246760000.0\nsamples = 5\nvalue = 161700.0"] ;
967 -> 968 ;
969 [label="X[2] <= 82.5\nmse = 214921875.0\nsamples = 4\nvalue = 157375.0"] ;
968 -> 969 ;
970 [label="X[0] <= 10696.0\nmse = 5193877.551\nsamples = 3\nvalue = 162857.1429"] ;
969 -> 970 ;
971 [label="mse = 0.0\nsamples = 1\nvalue = 165000.0"] ;
970 -> 971 ;
972 [label="X[2] <= 72.5\nmse = 3062500.0\nsamples = 2\nvalue = 161250.0"] ;
970 -> 972 ;
973 [label="mse = 0.0\nsamples = 1\nvalue = 159500.0"] ;
972 -> 973 ;
974 [label="mse = 0.0\nsamples = 1\nvalue = 163000.0"] ;
972 -> 974 ;
975 [label="mse = 0.0\nsamples = 1\nvalue = 119000.0"] ;
969 -> 975 ;
976 [label="mse = 0.0\nsamples = 1\nvalue = 179000.0"] ;
968 -> 976 ;
977 [label="mse = 0.0\nsamples = 1\nvalue = 234000.0"] ;
967 -> 977 ;
978 [label="X[0] <= 4964.5\nmse = 3478058715.88\nsamples = 62\nvalue = 201132.1596"] ;
808 -> 978 ;
979 [label="X[0] <= 4350.0\nmse = 994157952.616\nsamples = 34\nvalue = 174018.7447"] ;
978 -> 979 ;
980 [label="X[0] <= 4044.0\nmse = 805690088.302\nsamples = 19\nvalue = 185425.2069"] ;
979 -> 980 ;
981 [label="X[0] <= 3982.5\nmse = 703076335.873\nsamples = 16\nvalue = 179339.7083"] ;
980 -> 981 ;
982 [label="X[0] <= 3769.0\nmse = 557316783.176\nsamples = 14\nvalue = 183484.2273"] ;
981 -> 982 ;
983 [label="X[0] <= 3041.0\nmse = 157278671.28\nsamples = 11\nvalue = 176855.8824"] ;
982 -> 983 ;
984 [label="X[1] <= 2007.0\nmse = 8294400.0\nsamples = 2\nvalue = 170120.0"] ;
983 -> 984 ;
985 [label="mse = 0.0\nsamples = 1\nvalue = 167240.0"] ;
984 -> 985 ;
986 [label="mse = 0.0\nsamples = 1\nvalue = 173000.0"] ;
984 -> 986 ;
987 [label="X[0] <= 3415.5\nmse = 200295254.546\nsamples = 9\nvalue = 180530.0"] ;
983 -> 987 ;
988 [label="X[0] <= 3189.0\nmse = 234694010.938\nsamples = 7\nvalue = 183741.25"] ;
987 -> 988 ;
989 [label="X[1] <= 2009.5\nmse = 108693653.061\nsamples = 6\nvalue = 179275.7143"] ;
988 -> 989 ;
990 [label="X[0] <= 3104.0\nmse = 95327258.3333\nsamples = 5\nvalue = 177155.0"] ;
989 -> 990 ;
991 [label="mse = 0.0\nsamples = 1\nvalue = 178740.0"] ;
990 -> 991 ;
992 [label="X[0] <= 3159.0\nmse = 141106718.75\nsamples = 4\nvalue = 176362.5"] ;
990 -> 992 ;
993 [label="mse = 0.0\nsamples = 1\nvalue = 171750.0"] ;
992 -> 993 ;
994 [label="mse = 178686666.667\nsamples = 3\nvalue = 177900.0"] ;
992 -> 994 ;
995 [label="mse = 0.0\nsamples = 1\nvalue = 192000.0"] ;
989 -> 995 ;
996 [label="mse = 0.0\nsamples = 1\nvalue = 215000.0"] ;
988 -> 996 ;
997 [label="X[1] <= 2008.0\nmse = 7735555.5556\nsamples = 2\nvalue = 171966.6667"] ;
987 -> 997 ;
998 [label="mse = 0.0\nsamples = 1\nvalue = 170000.0"] ;
997 -> 998 ;
999 [label="mse = 0.0\nsamples = 1\nvalue = 175900.0"] ;
997 -> 999 ;
1000 [label="X[1] <= 2007.5\nmse = 1260179416.24\nsamples = 3\nvalue = 206020.6"] ;
982 -> 1000 ;
1001 [label="mse = 88300012.6875\nsamples = 2\nvalue = 188775.75"] ;
1000 -> 1001 ;
1002 [label="mse = 0.0\nsamples = 1\nvalue = 275000.0"] ;
1000 -> 1002 ;
1003 [label="X[1] <= 2009.0\nmse = 39062500.0\nsamples = 2\nvalue = 133750.0"] ;
981 -> 1003 ;
1004 [label="mse = 0.0\nsamples = 1\nvalue = 140000.0"] ;
1003 -> 1004 ;
1005 [label="mse = 0.0\nsamples = 1\nvalue = 127500.0"] ;
1003 -> 1005 ;
1006 [label="X[0] <= 4137.5\nmse = 267229229.44\nsamples = 3\nvalue = 214635.6"] ;
980 -> 1006 ;
1007 [label="mse = 0.0\nsamples = 1\nvalue = 246578.0"] ;
1006 -> 1007 ;
1008 [label="X[0] <= 4252.0\nmse = 15187500.0\nsamples = 2\nvalue = 206650.0"] ;
1006 -> 1008 ;
1009 [label="mse = 0.0\nsamples = 1\nvalue = 208900.0"] ;
1008 -> 1009 ;
1010 [label="mse = 0.0\nsamples = 1\nvalue = 199900.0"] ;
1008 -> 1010 ;
1011 [label="X[0] <= 4469.0\nmse = 750466180.556\nsamples = 15\nvalue = 155641.6667"] ;
979 -> 1011 ;
1012 [label="X[1] <= 2007.5\nmse = 20839669.4215\nsamples = 8\nvalue = 142481.8182"] ;
1011 -> 1012 ;
1013 [label="mse = 0.0\nsamples = 1\nvalue = 131500.0"] ;
1012 -> 1013 ;
1014 [label="X[0] <= 4436.5\nmse = 9657600.0\nsamples = 7\nvalue = 143580.0"] ;
1012 -> 1014 ;
1015 [label="X[0] <= 4430.5\nmse = 7666093.75\nsamples = 5\nvalue = 142787.5"] ;
1014 -> 1015 ;
1016 [label="X[1] <= 2009.0\nmse = 8612500.0\nsamples = 3\nvalue = 143050.0"] ;
1015 -> 1016 ;
1017 [label="mse = 12916875.0\nsamples = 2\nvalue = 143075.0"] ;
1016 -> 1017 ;
1018 [label="mse = 0.0\nsamples = 1\nvalue = 143000.0"] ;
1016 -> 1018 ;
1019 [label="mse = 4000000.0\nsamples = 2\nvalue = 142000.0"] ;
1015 -> 1019 ;
1020 [label="mse = 5062500.0\nsamples = 2\nvalue = 146750.0"] ;
1014 -> 1020 ;
1021 [label="X[0] <= 4839.0\nmse = 1197227040.82\nsamples = 7\nvalue = 176321.4286"] ;
1011 -> 1021 ;
1022 [label="X[0] <= 4545.0\nmse = 735200000.0\nsamples = 5\nvalue = 192500.0"] ;
1021 -> 1022 ;
1023 [label="X[1] <= 2007.5\nmse = 250000.0\nsamples = 2\nvalue = 164500.0"] ;
1022 -> 1023 ;
1024 [label="mse = 0.0\nsamples = 1\nvalue = 164000.0"] ;
1023 -> 1024 ;
1025 [label="mse = 0.0\nsamples = 1\nvalue = 165000.0"] ;
1023 -> 1025 ;
1026 [label="X[0] <= 4710.5\nmse = 354055555.556\nsamples = 3\nvalue = 211166.6667"] ;
1022 -> 1026 ;
1027 [label="X[0] <= 4630.5\nmse = 105062500.0\nsamples = 2\nvalue = 199250.0"] ;
1026 -> 1027 ;
1028 [label="mse = 0.0\nsamples = 1\nvalue = 209500.0"] ;
1027 -> 1028 ;
1029 [label="mse = 0.0\nsamples = 1\nvalue = 189000.0"] ;
1027 -> 1029 ;
1030 [label="mse = 0.0\nsamples = 1\nvalue = 235000.0"] ;
1026 -> 1030 ;
1031 [label="X[1] <= 2008.0\nmse = 62015625.0\nsamples = 2\nvalue = 135875.0"] ;
1021 -> 1031 ;
1032 [label="mse = 0.0\nsamples = 1\nvalue = 128000.0"] ;
1031 -> 1032 ;
1033 [label="mse = 0.0\nsamples = 1\nvalue = 143750.0"] ;
1031 -> 1033 ;
1034 [label="X[1] <= 2009.5\nmse = 4491684944.76\nsamples = 28\nvalue = 228245.5745"] ;
978 -> 1034 ;
1035 [label="X[0] <= 8483.5\nmse = 3723385261.46\nsamples = 22\nvalue = 244119.5263"] ;
1034 -> 1035 ;
1036 [label="X[0] <= 7856.0\nmse = 3558941893.94\nsamples = 20\nvalue = 239349.9429"] ;
1035 -> 1036 ;
1037 [label="X[0] <= 7698.5\nmse = 3538262534.48\nsamples = 17\nvalue = 244479.625"] ;
1036 -> 1037 ;
1038 [label="X[1] <= 2007.5\nmse = 3286257588.94\nsamples = 16\nvalue = 236867.7586"] ;
1037 -> 1038 ;
1039 [label="X[0] <= 7445.0\nmse = 1227281496.89\nsamples = 9\nvalue = 221956.7647"] ;
1038 -> 1039 ;
1040 [label="X[0] <= 7182.5\nmse = 1278653867.33\nsamples = 8\nvalue = 225591.0"] ;
1039 -> 1040 ;
1041 [label="X[0] <= 6677.5\nmse = 997048376.923\nsamples = 7\nvalue = 217605.0"] ;
1040 -> 1041 ;
1042 [label="X[0] <= 6502.5\nmse = 1057888888.89\nsamples = 4\nvalue = 228000.0"] ;
1041 -> 1042 ;
1043 [label="X[0] <= 5886.0\nmse = 548673469.388\nsamples = 3\nvalue = 214571.4286"] ;
1042 -> 1043 ;
1044 [label="X[0] <= 5300.5\nmse = 826888888.889\nsamples = 2\nvalue = 230666.6667"] ;
1043 -> 1044 ;
1045 [label="mse = 0.0\nsamples = 1\nvalue = 190000.0"] ;
1044 -> 1045 ;
1046 [label="mse = 0.0\nsamples = 1\nvalue = 251000.0"] ;
1044 -> 1046 ;
1047 [label="mse = 0.0\nsamples = 1\nvalue = 202500.0"] ;
1043 -> 1047 ;
1048 [label="mse = 0.0\nsamples = 1\nvalue = 275000.0"] ;
1042 -> 1048 ;
1049 [label="X[0] <= 7003.5\nmse = 69997542.1875\nsamples = 3\nvalue = 194216.25"] ;
1041 -> 1049 ;
1050 [label="X[0] <= 6873.5\nmse = 6806.25\nsamples = 2\nvalue = 202582.5"] ;
1049 -> 1050 ;
1051 [label="mse = 0.0\nsamples = 1\nvalue = 202665.0"] ;
1050 -> 1051 ;
1052 [label="mse = 0.0\nsamples = 1\nvalue = 202500.0"] ;
1050 -> 1052 ;
1053 [label="mse = 0.0\nsamples = 1\nvalue = 185850.0"] ;
1049 -> 1053 ;
1054 [label="mse = 0.0\nsamples = 1\nvalue = 277500.0"] ;
1040 -> 1054 ;
1055 [label="mse = 0.0\nsamples = 1\nvalue = 194700.0"] ;
1039 -> 1055 ;
1056 [label="X[0] <= 5491.0\nmse = 5441942430.56\nsamples = 7\nvalue = 257991.6667"] ;
1038 -> 1056 ;
1057 [label="X[0] <= 5250.0\nmse = 2486091020.41\nsamples = 4\nvalue = 217842.8571"] ;
1056 -> 1057 ;
1058 [label="X[1] <= 2008.5\nmse = 2173602222.22\nsamples = 2\nvalue = 262966.6667"] ;
1057 -> 1058 ;
1059 [label="mse = 0.0\nsamples = 1\nvalue = 328900.0"] ;
1058 -> 1059 ;
1060 [label="mse = 0.0\nsamples = 1\nvalue = 230000.0"] ;
1058 -> 1060 ;
1061 [label="X[0] <= 5388.0\nmse = 48000000.0\nsamples = 2\nvalue = 184000.0"] ;
1057 -> 1061 ;
1062 [label="mse = 0.0\nsamples = 1\nvalue = 196000.0"] ;
1061 -> 1062 ;
1063 [label="mse = 0.0\nsamples = 1\nvalue = 180000.0"] ;
1061 -> 1063 ;
1064 [label="X[1] <= 2008.5\nmse = 4164060000.0\nsamples = 3\nvalue = 314200.0"] ;
1056 -> 1064 ;
1065 [label="mse = 0.0\nsamples = 1\nvalue = 392500.0"] ;
1064 -> 1065 ;
1066 [label="X[0] <= 5952.0\nmse = 128000000.0\nsamples = 2\nvalue = 262000.0"] ;
1064 -> 1066 ;
1067 [label="mse = 0.0\nsamples = 1\nvalue = 278000.0"] ;
1066 -> 1067 ;
1068 [label="mse = 0.0\nsamples = 1\nvalue = 254000.0"] ;
1066 -> 1068 ;
1069 [label="mse = 0.0\nsamples = 1\nvalue = 318061.0"] ;
1037 -> 1069 ;
1070 [label="X[0] <= 7952.0\nmse = 504935555.556\nsamples = 3\nvalue = 184633.3333"] ;
1036 -> 1070 ;
1071 [label="mse = 0.0\nsamples = 1\nvalue = 153900.0"] ;
1070 -> 1071 ;
1072 [label="X[0] <= 8105.0\nmse = 49000000.0\nsamples = 2\nvalue = 200000.0"] ;
1070 -> 1072 ;
1073 [label="mse = 0.0\nsamples = 1\nvalue = 193000.0"] ;
1072 -> 1073 ;
1074 [label="mse = 0.0\nsamples = 1\nvalue = 207000.0"] ;
1072 -> 1074 ;
1075 [label="X[0] <= 8809.0\nmse = 2280105430.22\nsamples = 2\nvalue = 299764.6667"] ;
1035 -> 1075 ;
1076 [label="mse = 0.0\nsamples = 1\nvalue = 367294.0"] ;
1075 -> 1076 ;
1077 [label="mse = 0.0\nsamples = 1\nvalue = 266000.0"] ;
1075 -> 1077 ;
1078 [label="X[0] <= 6997.5\nmse = 2179561728.4\nsamples = 6\nvalue = 161222.2222"] ;
1034 -> 1078 ;
1079 [label="X[0] <= 5880.0\nmse = 100055555.556\nsamples = 3\nvalue = 224166.6667"] ;
1078 -> 1079 ;
1080 [label="mse = 0.0\nsamples = 1\nvalue = 236500.0"] ;
1079 -> 1080 ;
1081 [label="X[0] <= 6595.5\nmse = 36000000.0\nsamples = 2\nvalue = 218000.0"] ;
1079 -> 1081 ;
1082 [label="mse = 0.0\nsamples = 1\nvalue = 224000.0"] ;
1081 -> 1082 ;
1083 [label="mse = 0.0\nsamples = 1\nvalue = 212000.0"] ;
1081 -> 1083 ;
1084 [label="X[0] <= 7952.0\nmse = 247812500.0\nsamples = 3\nvalue = 129750.0"] ;
1078 -> 1084 ;
1085 [label="X[0] <= 7533.5\nmse = 144500000.0\nsamples = 2\nvalue = 116500.0"] ;
1084 -> 1085 ;
1086 [label="mse = 0.0\nsamples = 1\nvalue = 125000.0"] ;
1085 -> 1086 ;
1087 [label="mse = 0.0\nsamples = 1\nvalue = 99500.0"] ;
1085 -> 1087 ;
1088 [label="mse = 0.0\nsamples = 1\nvalue = 143000.0"] ;
1084 -> 1088 ;
1089 [label="X[0] <= 1943.0\nmse = 1309653164.27\nsamples = 58\nvalue = 128089.4588"] ;
807 -> 1089 ;
1090 [label="X[2] <= 170.0\nmse = 247629664.0\nsamples = 18\nvalue = 100356.0"] ;
1089 -> 1090 ;
1091 [label="X[0] <= 1416.5\nmse = 175700524.691\nsamples = 14\nvalue = 107105.5556"] ;
1090 -> 1091 ;
1092 [label="mse = 0.0\nsamples = 1\nvalue = 124000.0"] ;
1091 -> 1092 ;
1093 [label="X[0] <= 1785.0\nmse = 157525585.938\nsamples = 13\nvalue = 104993.75"] ;
1091 -> 1093 ;
1094 [label="X[1] <= 2008.5\nmse = 153793609.468\nsamples = 11\nvalue = 102415.3846"] ;
1093 -> 1094 ;
1095 [label="X[1] <= 2007.0\nmse = 98044081.6327\nsamples = 6\nvalue = 96985.7143"] ;
1094 -> 1095 ;
1096 [label="mse = 140388888.889\nsamples = 3\nvalue = 101333.3333"] ;
1095 -> 1096 ;
1097 [label="mse = 41476875.0\nsamples = 3\nvalue = 93725.0"] ;
1095 -> 1097 ;
1098 [label="X[1] <= 2009.5\nmse = 144312500.0\nsamples = 5\nvalue = 108750.0"] ;
1094 -> 1098 ;
1099 [label="X[0] <= 1606.5\nmse = 69840000.0\nsamples = 4\nvalue = 112900.0"] ;
1098 -> 1099 ;
1100 [label="mse = 0.0\nsamples = 1\nvalue = 97000.0"] ;
1099 -> 1100 ;
1101 [label="mse = 8296875.0\nsamples = 3\nvalue = 116875.0"] ;
1099 -> 1101 ;
1102 [label="mse = 0.0\nsamples = 1\nvalue = 88000.0"] ;
1098 -> 1102 ;
1103 [label="X[0] <= 1905.0\nmse = 20055555.5556\nsamples = 2\nvalue = 116166.6667"] ;
1093 -> 1103 ;
1104 [label="mse = 0.0\nsamples = 1\nvalue = 113000.0"] ;
1103 -> 1104 ;
1105 [label="mse = 0.0\nsamples = 1\nvalue = 122500.0"] ;
1103 -> 1105 ;
1106 [label="X[0] <= 1536.5\nmse = 14214285.7143\nsamples = 4\nvalue = 83000.0"] ;
1090 -> 1106 ;
1107 [label="mse = 0.0\nsamples = 1\nvalue = 80000.0"] ;
1106 -> 1107 ;
1108 [label="X[1] <= 2008.5\nmse = 13062500.0\nsamples = 3\nvalue = 85250.0"] ;
1106 -> 1108 ;
1109 [label="X[1] <= 2007.5\nmse = 2722222.2222\nsamples = 2\nvalue = 83333.3333"] ;
1108 -> 1109 ;
1110 [label="mse = 0.0\nsamples = 1\nvalue = 84500.0"] ;
1109 -> 1110 ;
1111 [label="mse = 0.0\nsamples = 1\nvalue = 81000.0"] ;
1109 -> 1111 ;
1112 [label="mse = 0.0\nsamples = 1\nvalue = 91000.0"] ;
1108 -> 1112 ;
1113 [label="X[0] <= 5453.0\nmse = 1298153909.13\nsamples = 40\nvalue = 139645.0667"] ;
1089 -> 1113 ;
1114 [label="X[0] <= 4759.0\nmse = 774738696.71\nsamples = 27\nvalue = 156097.5385"] ;
1113 -> 1114 ;
1115 [label="X[0] <= 2066.5\nmse = 488425148.787\nsamples = 24\nvalue = 151000.1143"] ;
1114 -> 1115 ;
1116 [label="X[1] <= 2007.5\nmse = 450000000.0\nsamples = 2\nvalue = 121000.0"] ;
1115 -> 1116 ;
1117 [label="mse = 0.0\nsamples = 1\nvalue = 106000.0"] ;
1116 -> 1117 ;
1118 [label="mse = 0.0\nsamples = 1\nvalue = 151000.0"] ;
1116 -> 1118 ;
1119 [label="X[2] <= 170.0\nmse = 399741647.109\nsamples = 22\nvalue = 153812.625"] ;
1115 -> 1119 ;
1120 [label="X[1] <= 2009.5\nmse = 364930233.075\nsamples = 20\nvalue = 156172.5517"] ;
1119 -> 1120 ;
1121 [label="X[1] <= 2006.5\nmse = 191621188.597\nsamples = 16\nvalue = 159891.4783"] ;
1120 -> 1121 ;
1122 [label="X[0] <= 2915.5\nmse = 95029172.2449\nsamples = 5\nvalue = 147643.4286"] ;
1121 -> 1122 ;
1123 [label="X[0] <= 2597.5\nmse = 77440000.0\nsamples = 2\nvalue = 156200.0"] ;
1122 -> 1123 ;
1124 [label="mse = 0.0\nsamples = 1\nvalue = 147400.0"] ;
1123 -> 1124 ;
1125 [label="mse = 0.0\nsamples = 1\nvalue = 165000.0"] ;
1123 -> 1125 ;
1126 [label="X[0] <= 3663.5\nmse = 61064488.96\nsamples = 3\nvalue = 144220.8"] ;
1122 -> 1126 ;
1127 [label="X[0] <= 3271.5\nmse = 44506467.5556\nsamples = 2\nvalue = 139434.6667"] ;
1126 -> 1127 ;
1128 [label="mse = 0.0\nsamples = 1\nvalue = 144152.0"] ;
1127 -> 1128 ;
1129 [label="mse = 0.0\nsamples = 1\nvalue = 130000.0"] ;
1127 -> 1129 ;
1130 [label="mse = 0.0\nsamples = 1\nvalue = 151400.0"] ;
1126 -> 1130 ;
1131 [label="X[0] <= 3417.0\nmse = 139535000.0\nsamples = 11\nvalue = 165250.0"] ;
1121 -> 1131 ;
1132 [label="X[0] <= 2467.0\nmse = 105679408.284\nsamples = 9\nvalue = 168253.8462"] ;
1131 -> 1132 ;
1133 [label="X[1] <= 2008.5\nmse = 145657343.75\nsamples = 6\nvalue = 165162.5"] ;
1132 -> 1133 ;
1134 [label="X[0] <= 2220.0\nmse = 70814722.2222\nsamples = 4\nvalue = 170716.6667"] ;
1133 -> 1134 ;
1135 [label="X[0] <= 2138.5\nmse = 49671875.0\nsamples = 3\nvalue = 166375.0"] ;
1134 -> 1135 ;
1136 [label="mse = 18062500.0\nsamples = 2\nvalue = 172750.0"] ;
1135 -> 1136 ;
1137 [label="mse = 0.0\nsamples = 1\nvalue = 160000.0"] ;
1135 -> 1137 ;
1138 [label="mse = 0.0\nsamples = 1\nvalue = 179400.0"] ;
1134 -> 1138 ;
1139 [label="mse = 0.0\nsamples = 2\nvalue = 148500.0"] ;
1133 -> 1139 ;
1140 [label="X[1] <= 2008.0\nmse = 1960000.0\nsamples = 3\nvalue = 173200.0"] ;
1132 -> 1140 ;
1141 [label="mse = 0.0\nsamples = 1\nvalue = 176000.0"] ;
1140 -> 1141 ;
1142 [label="mse = 0.0\nsamples = 2\nvalue = 172500.0"] ;
1140 -> 1142 ;
1143 [label="X[0] <= 3927.5\nmse = 77708888.8889\nsamples = 2\nvalue = 152233.3333"] ;
1131 -> 1143 ;
1144 [label="mse = 0.0\nsamples = 1\nvalue = 146000.0"] ;
1143 -> 1144 ;
1145 [label="mse = 0.0\nsamples = 1\nvalue = 164700.0"] ;
1143 -> 1145 ;
1146 [label="X[0] <= 2436.0\nmse = 773034722.222\nsamples = 4\nvalue = 141916.6667"] ;
1120 -> 1146 ;
1147 [label="X[0] <= 2198.5\nmse = 186046875.0\nsamples = 2\nvalue = 153875.0"] ;
1146 -> 1147 ;
1148 [label="mse = 0.0\nsamples = 1\nvalue = 177500.0"] ;
1147 -> 1148 ;
1149 [label="mse = 0.0\nsamples = 1\nvalue = 146000.0"] ;
1147 -> 1149 ;
1150 [label="X[0] <= 2887.0\nmse = 1089000000.0\nsamples = 2\nvalue = 118000.0"] ;
1146 -> 1150 ;
1151 [label="mse = 0.0\nsamples = 1\nvalue = 85000.0"] ;
1150 -> 1151 ;
1152 [label="mse = 0.0\nsamples = 1\nvalue = 151000.0"] ;
1150 -> 1152 ;
1153 [label="X[1] <= 2007.5\nmse = 162000000.0\nsamples = 2\nvalue = 131000.0"] ;
1119 -> 1153 ;
1154 [label="mse = 0.0\nsamples = 1\nvalue = 140000.0"] ;
1153 -> 1154 ;
1155 [label="mse = 0.0\nsamples = 1\nvalue = 113000.0"] ;
1153 -> 1155 ;
1156 [label="X[0] <= 5205.5\nmse = 1063245000.0\nsamples = 3\nvalue = 200700.0"] ;
1114 -> 1156 ;
1157 [label="X[0] <= 5083.5\nmse = 765708888.889\nsamples = 2\nvalue = 187933.3333"] ;
1156 -> 1157 ;
1158 [label="mse = 0.0\nsamples = 1\nvalue = 207500.0"] ;
1157 -> 1158 ;
1159 [label="mse = 0.0\nsamples = 1\nvalue = 148800.0"] ;
1157 -> 1159 ;
1160 [label="mse = 0.0\nsamples = 1\nvalue = 239000.0"] ;
1156 -> 1160 ;
1161 [label="X[0] <= 6931.0\nmse = 833929195.011\nsamples = 13\nvalue = 109090.4762"] ;
1113 -> 1161 ;
1162 [label="X[0] <= 5800.0\nmse = 280600000.0\nsamples = 3\nvalue = 68500.0"] ;
1161 -> 1162 ;
1163 [label="mse = 0.0\nsamples = 1\nvalue = 55000.0"] ;
1162 -> 1163 ;
1164 [label="X[1] <= 2007.5\nmse = 18062500.0\nsamples = 2\nvalue = 88750.0"] ;
1162 -> 1164 ;
1165 [label="mse = 0.0\nsamples = 1\nvalue = 84500.0"] ;
1164 -> 1165 ;
1166 [label="mse = 0.0\nsamples = 1\nvalue = 93000.0"] ;
1164 -> 1166 ;
1167 [label="X[0] <= 10498.5\nmse = 331076562.5\nsamples = 10\nvalue = 121775.0"] ;
1161 -> 1167 ;
1168 [label="X[0] <= 7356.0\nmse = 132293580.247\nsamples = 7\nvalue = 134544.4444"] ;
1167 -> 1168 ;
1169 [label="mse = 0.0\nsamples = 1\nvalue = 160000.0"] ;
1168 -> 1169 ;
1170 [label="X[0] <= 7715.0\nmse = 57707343.75\nsamples = 6\nvalue = 131362.5"] ;
1168 -> 1170 ;
1171 [label="mse = 0.0\nsamples = 1\nvalue = 140000.0"] ;
1170 -> 1171 ;
1172 [label="X[0] <= 8471.0\nmse = 53770612.2449\nsamples = 5\nvalue = 130128.5714"] ;
1170 -> 1172 ;
1173 [label="mse = 0.0\nsamples = 1\nvalue = 119900.0"] ;
1172 -> 1173 ;
1174 [label="X[1] <= 2006.5\nmse = 42388888.8889\nsamples = 4\nvalue = 131833.3333"] ;
1172 -> 1174 ;
1175 [label="X[0] <= 9762.0\nmse = 2000000.0\nsamples = 2\nvalue = 138000.0"] ;
1174 -> 1175 ;
1176 [label="mse = 0.0\nsamples = 1\nvalue = 137000.0"] ;
1175 -> 1176 ;
1177 [label="mse = 0.0\nsamples = 1\nvalue = 140000.0"] ;
1175 -> 1177 ;
1178 [label="X[1] <= 2007.5\nmse = 6722222.2222\nsamples = 2\nvalue = 125666.6667"] ;
1174 -> 1178 ;
1179 [label="mse = 0.0\nsamples = 1\nvalue = 122000.0"] ;
1178 -> 1179 ;
1180 [label="mse = 0.0\nsamples = 1\nvalue = 127500.0"] ;
1178 -> 1180 ;
1181 [label="X[2] <= 175.0\nmse = 107461734.694\nsamples = 3\nvalue = 105357.1429"] ;
1167 -> 1181 ;
1182 [label="mse = 0.0\nsamples = 1\nvalue = 120000.0"] ;
1181 -> 1182 ;
1183 [label="X[0] <= 10707.5\nmse = 30375000.0\nsamples = 2\nvalue = 99500.0"] ;
1181 -> 1183 ;
1184 [label="mse = 0.0\nsamples = 1\nvalue = 95000.0"] ;
1183 -> 1184 ;
1185 [label="mse = 0.0\nsamples = 1\nvalue = 106250.0"] ;
1183 -> 1185 ;
1186 [label="X[0] <= 35446.5\nmse = 9927642136.59\nsamples = 295\nvalue = 236012.883"] ;
0 -> 1186 [labeldistance=2.5, labelangle=-45, headlabel="False"] ;
1187 [label="X[2] <= 82.5\nmse = 8911784698.62\nsamples = 282\nvalue = 230721.9"] ;
1186 -> 1187 ;
1188 [label="X[2] <= 55.0\nmse = 8940293192.85\nsamples = 265\nvalue = 235739.695"] ;
1187 -> 1188 ;
1189 [label="X[2] <= 25.0\nmse = 8960093091.99\nsamples = 154\nvalue = 218943.631"] ;
1188 -> 1189 ;
1190 [label="X[0] <= 13851.0\nmse = 9397511339.95\nsamples = 124\nvalue = 232338.955"] ;
1189 -> 1190 ;
1191 [label="X[0] <= 12087.5\nmse = 7765718855.7\nsamples = 76\nvalue = 220091.3231"] ;
1190 -> 1191 ;
1192 [label="X[0] <= 11367.5\nmse = 9115741020.03\nsamples = 40\nvalue = 235579.1216"] ;
1191 -> 1192 ;
